{"learner":{"attributes":{},"feature_names":["distance_to_goal","angle_to_goal","x_coordinate","y_deviation","distance_to_goal_line","keeper_distance_from_line","keeper_lateral_deviation","keeper_cone_blocked","defenders_in_triangle","closest_defender_distance","defenders_within_5m","defenders_in_shooting_lane","shot_height","is_header_aerial_won","keeper_forward_high_shot","body_part_Head","body_part_Left Foot","body_part_Other","body_part_Right Foot","technique_Backheel","technique_Diving Header","technique_Half Volley","technique_Lob","technique_Normal","technique_Overhead Kick","technique_Volley","shot_type_Corner","shot_type_Free Kick","shot_type_Kick Off","shot_type_Open Play","shot_height_category_ground","shot_height_category_low","shot_height_category_medium","shot_height_category_high"],"feature_types":["float","float","float","float","float","float","float","float","int","float","int","int","float","int","int","i","i","i","i","i","i","i","i","i","i","i","i","i","i","i","i","i","i","i"],"gradient_booster":{"model":{"cats":{"enc":[],"feature_segments":[],"sorted_idx":[]},"gbtree_model_param":{"num_parallel_tree":"1","num_trees":"300"},"iteration_indptr":[0,1,2,3,4,5,6,7,8,9,10,11,12,13,14,15,16,17,18,19,20,21,22,23,24,25,26,27,28,29,30,31,32,33,34,35,36,37,38,39,40,41,42,43,44,45,46,47,48,49,50,51,52,53,54,55,56,57,58,59,60,61,62,63,64,65,66,67,68,69,70,71,72,73,74,75,76,77,78,79,80,81,82,83,84,85,86,87,88,89,90,91,92,93,94,95,96,97,98,99,100,101,102,103,104,105,106,107,108,109,110,111,112,113,114,115,116,117,118,119,120,121,122,123,124,125,126,127,128,129,130,131,132,133,134,135,136,137,138,139,140,141,142,143,144,145,146,147,148,149,150,151,152,153,154,155,156,157,158,159,160,161,162,163,164,165,166,167,168,169,170,171,172,173,174,175,176,177,178,179,180,181,182,183,184,185,186,187,188,189,190,191,192,193,194,195,196,197,198,199,200,201,202,203,204,205,206,207,208,209,210,211,212,213,214,215,216,217,218,219,220,221,222,223,224,225,226,227,228,229,230,231,232,233,234,235,236,237,238,239,240,241,242,243,244,245,246,247,248,249,250,251,252,253,254,255,256,257,258,259,260,261,262,263,264,265,266,267,268,269,270,271,272,273,274,275,276,277,278,279,280,281,282,283,284,285,286,287,288,289,290,291,292,293,294,295,296,297,298,299,300],"tree_info":[0,0,0,0,0,0,0,0,0,0,0,0,0,0,0,0,0,0,0,0,0,0,0,0,0,0,0,0,0,0,0,0,0,0,0,0,0,0,0,0,0,0,0,0,0,0,0,0,0,0,0,0,0,0,0,0,0,0,0,0,0,0,0,0,0,0,0,0,0,0,0,0,0,0,0,0,0,0,0,0,0,0,0,0,0,0,0,0,0,0,0,0,0,0,0,0,0,0,0,0,0,0,0,0,0,0,0,0,0,0,0,0,0,0,0,0,0,0,0,0,0,0,0,0,0,0,0,0,0,0,0,0,0,0,0,0,0,0,0,0,0,0,0,0,0,0,0,0,0,0,0,0,0,0,0,0,0,0,0,0,0,0,0,0,0,0,0,0,0,0,0,0,0,0,0,0,0,0,0,0,0,0,0,0,0,0,0,0,0,0,0,0,0,0,0,0,0,0,0,0,0,0,0,0,0,0,0,0,0,0,0,0,0,0,0,0,0,0,0,0,0,0,0,0,0,0,0,0,0,0,0,0,0,0,0,0,0,0,0,0,0,0,0,0,0,0,0,0,0,0,0,0,0,0,0,0,0,0,0,0,0,0,0,0,0,0,0,0,0,0,0,0,0,0,0,0,0,0,0,0,0,0,0,0,0,0,0,0,0,0,0,0,0,0,0,0,0,0,0,0],"trees":[{"base_weights":[-4.162395E-3,2.4313796E0,-2.2186998E-1,3.2372904E0,5.523774E-2,-1.0057999E0,1.7453071E-1,5.523774E-2,4.3858795E0,-3.9447013E-1,-1.0355225E0,6.7311674E-1,-1.1058835E0,3.3057955E-1,1.8649249E-1,9.6752765E-3,-5.0593294E-2,-4.8043754E-2,-5.4688234E-2,5.523774E-2,-1.1204082E-2,-2.3801008E-2,-5.5524636E-2],"categories":[],"categories_nodes":[],"categories_segments":[],"categories_sizes":[],"default_left":[0,0,0,0,0,0,0,0,0,0,0,0,0,0,0,0,0,0,0,0,0,0,0],"id":0,"left_children":[1,3,5,7,-1,9,11,-1,13,15,17,19,21,-1,-1,-1,-1,-1,-1,-1,-1,-1,-1],"loss_changes":[3.347786E3,1.0011438E3,1.8019587E3,1.5810122E3,0E0,3.4256836E1,2.4599941E3,0E0,4.256289E2,3.5826035E1,5.9506836E0,1.669367E3,1.7631836E0,0E0,0E0,0E0,0E0,0E0,0E0,0E0,0E0,0E0,0E0],"parents":[2147483647,0,0,1,1,2,2,3,3,5,5,6,6,8,8,9,9,10,10,11,11,12,12],"right_children":[2,4,6,8,-1,10,12,-1,14,16,18,20,22,-1,-1,-1,-1,-1,-1,-1,-1,-1,-1],"split_conditions":[7.905694E0,2.5E0,1E-1,1E-1,5.523774E-2,-5.1E0,2.6E0,5.523774E-2,5E0,1E0,1.9366207E1,1.9580091E1,2.7E0,3.3057955E-1,1.8649249E-1,9.6752765E-3,-5.0593294E-2,-4.8043754E-2,-5.4688234E-2,5.523774E-2,-1.1204082E-2,-2.3801008E-2,-5.5524636E-2],"split_indices":[0,12,12,12,0,5,12,0,0,8,0,0,12,0,0,0,0,0,0,0,0,0,0],"split_type":[0,0,0,0,0,0,0,0,0,0,0,0,0,0,0,0,0,0,0,0,0,0,0],"sum_hessian":[6.3068193E3,5.156376E2,5.7911816E3,4.1882434E2,9.681321E1,1.944294E3,3.846888E3,9.608323E1,3.2274112E2,9.2250854E1,1.8520431E3,2.7697156E3,1.0771724E3,6.916533E1,2.5357579E2,4.7539757E1,4.4711094E1,8.308052E2,1.0212379E3,1.5334994E3,1.2362162E3,1.0128432E1,1.067044E3],"tree_param":{"num_deleted":"0","num_feature":"34","num_nodes":"23","size_leaf_vector":"1"}},{"base_weights":[-1.3950428E-2,-5.751548E-1,8.327826E-1,-1.0469339E0,-3.2968095E-1,1.2881392E-1,1.4514102E0,-2.9768223E-1,-1.0576293E0,-4.547993E-3,-5.516479E-2,8.6753106E-1,1.2881392E-1,2.131479E0,1.2881392E-1,-3.968465E-2,6.4406963E-3,-5.3597372E-2,-3.951175E-2,-2.2428958E-2,6.4406963E-3,9.912348E-2,6.4406963E-3,2.1295449E-2,6.4406963E-3,8.832174E-2,2.1735933E-1,2.0164628E-2,6.4406963E-3],"categories":[],"categories_nodes":[],"categories_segments":[],"categories_sizes":[],"default_left":[0,0,0,0,0,0,0,0,0,0,0,0,0,0,0,0,0,0,0,0,0,0,0,0,0,0,0,0,0],"id":1,"left_children":[1,3,5,7,9,11,13,15,17,19,-1,21,23,25,27,-1,-1,-1,-1,-1,-1,-1,-1,-1,-1,-1,-1,-1,-1],"loss_changes":[3.012039E3,4.407444E2,1.9709448E3,9.439331E0,6.3159186E2,6.412964E0,2.6036821E3,9.158566E0,3.090454E0,2.8784818E2,0E0,1.2819118E1,2.3151855E0,1.1602534E3,7.726135E-1,0E0,0E0,0E0,0E0,0E0,0E0,0E0,0E0,0E0,0E0,0E0,0E0,0E0,0E0],"parents":[2147483647,0,0,1,1,2,2,3,3,4,4,5,5,6,6,7,7,8,8,9,9,11,11,12,12,13,13,14,14],"right_children":[2,4,6,8,10,12,14,16,18,20,-1,22,24,26,28,-1,-1,-1,-1,-1,-1,-1,-1,-1,-1,-1,-1,-1,-1],"split_conditions":[2.2230267E1,1E-1,1E-1,-7.2E0,2.7E0,8.4291667E-1,2.5E0,1.7458767E1,4.1E0,1.5651396E1,-5.516479E-2,1E0,-6.4E0,5.7943836E1,2.6E0,-3.968465E-2,6.4406963E-3,-5.3597372E-2,-3.951175E-2,-2.2428958E-2,6.4406963E-3,9.912348E-2,6.4406963E-3,2.1295449E-2,6.4406963E-3,8.832174E-2,2.1735933E-1,2.0164628E-2,6.4406963E-3],"split_indices":[1,12,12,5,12,7,12,1,6,1,0,8,5,1,12,0,0,0,0,0,0,0,0,0,0,0,0,0,0],"split_type":[0,0,0,0,0,0,0,0,0,0,0,0,0,0,0,0,0,0,0,0,0,0,0,0,0,0,0,0,0],"sum_hessian":[6.3319185E3,3.8087544E3,2.523164E3,1.3005825E3,2.5081719E3,6.8338055E2,1.8397834E3,1.9773788E1,1.2808087E3,1.7678446E3,7.403273E2,8.458844E0,6.749217E2,1.4503254E3,3.8945795E2,1.2872019E1,6.9017706E0,1.2082244E3,7.25844E1,9.546025E2,8.1324207E2,3.077005E0,5.3818398E0,2.123978E1,6.5368195E2,1.2484585E3,2.0186699E2,5.052299E0,3.8440567E2],"tree_param":{"num_deleted":"0","num_feature":"34","num_nodes":"29","size_leaf_vector":"1"}},{"base_weights":[-1.7579645E-2,1.1898751E0,-3.582138E-1,2.3328226E0,6.428257E-1,-1.0363312E0,2.6266443E-2,2.8494964E0,7.439121E-2,1.4878242E0,4.1583067E-1,-1.4190577E-3,-1.037852E0,4.1583067E-1,-1.0956097E0,7.439121E-2,1.5592241E-1,7.439121E-2,2.0791534E-2,3.4383666E-2,2.0791534E-2,-4.7977634E-2,-5.308811E-2,2.0791534E-2,-1.7948732E-2,-1.6490024E-2,-5.5053085E-2],"categories":[],"categories_nodes":[],"categories_segments":[],"categories_sizes":[],"default_left":[0,0,0,0,0,0,0,0,0,0,0,0,0,0,0,0,0,0,0,0,0,0,0,0,0,0,0],"id":2,"left_children":[1,3,5,7,9,11,13,15,-1,17,19,-1,21,23,25,-1,-1,-1,-1,-1,-1,-1,-1,-1,-1,-1,-1],"loss_changes":[2.618024E3,8.72437E2,1.2951761E3,4.0223145E2,5.8303076E2,2.191162E0,1.5841171E3,2.169353E2,0E0,1.21946655E2,6.040642E0,0E0,1.2918701E0,5.1323425E2,2.6646729E0,0E0,0E0,0E0,0E0,0E0,0E0,0E0,0E0,0E0,0E0,0E0,0E0],"parents":[2147483647,0,0,1,1,2,2,3,3,4,4,5,5,6,6,7,7,9,9,10,10,12,12,13,13,14,14],"right_children":[2,4,6,8,10,12,14,16,-1,18,20,-1,22,24,26,-1,-1,-1,-1,-1,-1,-1,-1,-1,-1,-1,-1],"split_conditions":[1E0,9.81835E0,1E-1,2.6E0,-4.2E0,4.1231055E0,2.6E0,1E-1,7.439121E-2,2.5E0,1.1090987E1,-1.4190577E-3,1E0,2.221711E1,2.7E0,7.439121E-2,1.5592241E-1,7.439121E-2,2.0791534E-2,3.4383666E-2,2.0791534E-2,-4.7977634E-2,-5.308811E-2,2.0791534E-2,-1.7948732E-2,-1.6490024E-2,-5.5053085E-2],"split_indices":[11,0,12,12,5,0,12,12,0,12,0,0,8,0,12,0,0,0,0,0,0,0,0,0,0,0,0],"split_type":[0,0,0,0,0,0,0,0,0,0,0,0,0,0,0,0,0,0,0,0,0,0,0,0,0,0,0],"sum_hessian":[6.358453E3,1.397664E3,4.9607896E3,4.5001248E2,9.476514E2,1.7942086E3,3.1665808E3,3.9111172E2,5.8900753E1,3.1351804E2,6.3413336E2,3.2575455E0,1.790951E3,2.2653328E3,9.0124805E2,3.5832275E1,3.5527945E2,2.8576978E2,2.7748259E1,8.0743866E1,5.533895E2,4.430983E2,1.3478528E3,1.4131176E3,8.522151E2,7.888532E0,8.9335956E2],"tree_param":{"num_deleted":"0","num_feature":"34","num_nodes":"27","size_leaf_vector":"1"}},{"base_weights":[2.025531E-3,-9.6067864E-1,4.0250093E-1,-1.5132354E-1,-1.0272481E0,8.709812E-1,-1.0937976E0,9.009203E-1,-5.8928585E-1,-2.9464293E-2,-1.0314721E0,1.6211233E0,-4.4146534E-2,-4.5354137E-1,-5.4918945E-2,8.164054E-2,-9.617585E-3,2.01412E-2,-2.9464293E-2,-3.2527637E-2,-5.1840853E-2,1.0409752E-1,3.942442E-2,3.942442E-2,-8.791443E-3,-1.1280767E-3,-3.5139706E-2],"categories":[],"categories_nodes":[],"categories_segments":[],"categories_sizes":[],"default_left":[0,0,0,0,0,0,0,0,0,0,0,0,0,0,0,0,0,0,0,0,0,0,0,0,0,0,0],"id":3,"left_children":[1,3,5,7,9,11,13,15,17,-1,19,21,23,25,-1,-1,-1,-1,-1,-1,-1,-1,-1,-1,-1,-1,-1],"loss_changes":[2.4390754E3,9.93905E1,3.134105E3,7.780434E1,3.7442627E0,2.3375662E3,1.8112793E0,3.9819534E1,5.917286E0,0E0,1.9354248E0,7.5559326E2,2.3321361E2,1.1399179E0,0E0,0E0,0E0,0E0,0E0,0E0,0E0,0E0,0E0,0E0,0E0,0E0,0E0],"parents":[2147483647,0,0,1,1,2,2,3,3,4,4,5,5,6,6,7,7,8,8,10,10,11,11,12,12,13,13],"right_children":[2,4,6,8,10,12,14,16,18,-1,20,22,24,26,-1,-1,-1,-1,-1,-1,-1,-1,-1,-1,-1,-1,-1],"split_conditions":[1E-1,1E0,2.6E0,-3.2E0,8.803414E-1,1.7076591E1,2.7E0,1E1,5E0,-2.9464293E-2,-6.3E0,1E0,-5.1E0,1.071E2,-5.4918945E-2,8.164054E-2,-9.617585E-3,2.01412E-2,-2.9464293E-2,-3.2527637E-2,-5.1840853E-2,1.0409752E-1,3.942442E-2,3.942442E-2,-8.791443E-3,-1.1280767E-3,-3.5139706E-2],"split_indices":[12,11,12,5,7,0,12,3,0,0,5,15,5,2,0,0,0,0,0,0,0,0,0,0,0,0,0],"split_type":[0,0,0,0,0,0,0,0,0,0,0,0,0,0,0,0,0,0,0,0,0,0,0,0,0,0,0],"sum_hessian":[6.319587E3,1.8553818E3,4.464205E3,1.4207565E2,1.7133062E3,3.4006545E3,1.0635504E3,4.4924534E1,9.7151115E1,9.93363E0,1.7033726E3,1.8682385E3,1.5324159E3,9.752559E0,1.0537979E3,2.6592512E1,1.8332022E1,3.709429E0,9.344168E1,2.8261442E1,1.6751111E3,1.2250905E3,6.431481E2,1.3846391E2,1.393952E3,5.1077833E0,4.6447754E0],"tree_param":{"num_deleted":"0","num_feature":"34","num_nodes":"27","size_leaf_vector":"1"}},{"base_weights":[1.8194037E-3,-5.523696E-1,6.4189607E-1,-6.265064E-1,4.4763237E-2,1.6020571E0,1.7468742E-1,-7.2536856E-1,-2.914549E-1,-3.4305266E-1,4.4763237E-2,2.019455E0,8.8837224E-1,4.4763237E-2,8.8837224E-1,-3.871937E-2,-2.542059E-2,6.7078177E-4,-2.542059E-2,-7.4572354E-3,-3.3720303E-2,2.2381619E-3,-7.4572354E-3,2.2734796E-1,9.291937E-2,4.4418614E-2,9.591166E-2,2.3328388E-2,2.2381619E-3,4.4418614E-2,2.3328388E-2],"categories":[],"categories_nodes":[],"categories_segments":[],"categories_sizes":[],"default_left":[0,0,0,0,0,0,0,0,0,0,0,0,0,0,0,0,0,0,0,0,0,0,0,0,0,0,0,0,0,0,0],"id":4,"left_children":[1,3,5,7,9,11,13,15,17,19,21,23,25,27,29,-1,-1,-1,-1,-1,-1,-1,-1,-1,-1,-1,-1,-1,-1,-1,-1],"loss_changes":[2.247843E3,2.0068433E2,1.3182788E3,1.0316846E2,1.4335718E1,3.8016772E2,2.8953018E2,3.6055298E1,5.3143013E1,6.865325E0,2.1128073E0,2.6146826E2,6.785014E1,1.5570047E2,5.8019714E1,0E0,0E0,0E0,0E0,0E0,0E0,0E0,0E0,0E0,0E0,0E0,0E0,0E0,0E0,0E0,0E0],"parents":[2147483647,0,0,1,1,2,2,3,3,4,4,5,5,6,6,7,7,8,8,9,9,10,10,11,11,12,12,13,13,14,14],"right_children":[2,4,6,8,10,12,14,16,18,20,22,24,26,28,30,-1,-1,-1,-1,-1,-1,-1,-1,-1,-1,-1,-1,-1,-1,-1,-1],"split_conditions":[2.1146482E1,4.4E0,1E0,1.768894E1,1.3899117E1,1E0,4.913719E1,7.800641E0,1E0,1E0,-1.6E0,9.9747E-1,5.94302E1,-3.6E0,1E0,-3.871937E-2,-2.542059E-2,6.7078177E-4,-2.542059E-2,-7.4572354E-3,-3.3720303E-2,2.2381619E-3,-7.4572354E-3,2.2734796E-1,9.291937E-2,4.4418614E-2,9.591166E-2,2.3328388E-2,2.2381619E-3,4.4418614E-2,2.3328388E-2],"split_indices":[1,6,11,1,1,15,1,9,8,11,5,7,1,5,13,0,0,0,0,0,0,0,0,0,0,0,0,0,0,0,0],"split_type":[0,0,0,0,0,0,0,0,0,0,0,0,0,0,0,0,0,0,0,0,0,0,0,0,0,0,0,0,0,0,0],"sum_hessian":[6.329402E3,3.3920242E3,2.937378E3,3.1289458E3,2.630783E2,9.595263E2,1.9778516E3,2.4131006E3,7.158453E2,9.076464E1,1.7231367E2,6.788773E2,2.8064902E2,1.6622697E3,3.1558188E2,2.1212175E3,2.91883E2,3.1643243E2,3.994128E2,5.6278763E1,3.4485878E1,1.661785E2,6.135174E0,3.722172E1,6.416556E2,2.1815924E2,6.248976E1,2.3302017E2,1.4292495E3,1.8181671E2,1.3376517E2],"tree_param":{"num_deleted":"0","num_feature":"34","num_nodes":"31","size_leaf_vector":"1"}},{"base_weights":[-1.679725E-5,5.776109E-1,-5.4347086E-1,1.7364753E0,3.20948E-1,1.7070025E-2,-6.2249315E-1,1.9302453E-1,1.5605901E0,1.905842E0,1.0140735E-1,-6.5169156E-1,1.7070025E-2,-4.9854314E-1,-7.9817367E-1,8.956145E-2,4.8217397E-2,6.8235494E-2,1.21769644E-1,3.1243086E-2,8.5350126E-4,8.5350126E-4,-4.516573E-2,8.5350126E-4,-8.304167E-3,-2.6490344E-2,8.5350126E-4,-4.3604102E-2,-3.241792E-2],"categories":[],"categories_nodes":[],"categories_segments":[],"categories_sizes":[],"default_left":[0,0,0,0,0,0,0,0,0,0,0,0,0,0,0,0,0,0,0,0,0,0,0,0,0,0,0,0,0],"id":5,"left_children":[1,3,5,7,9,11,13,-1,15,17,19,21,23,25,27,-1,-1,-1,-1,-1,-1,-1,-1,-1,-1,-1,-1,-1,-1],"loss_changes":[1.9826052E3,9.0933673E2,2.1057886E2,1.9586523E2,8.727886E2,2.2217293E1,6.4845215E1,0E0,6.720386E1,8.0659424E1,2.2467012E2,1.1702435E1,4.205866E-1,3.8621063E1,2.203479E1,0E0,0E0,0E0,0E0,0E0,0E0,0E0,0E0,0E0,0E0,0E0,0E0,0E0,0E0],"parents":[2147483647,0,0,1,1,2,2,3,3,4,4,5,5,6,6,8,8,9,9,10,10,11,11,12,12,13,13,14,14],"right_children":[2,4,6,8,10,12,14,-1,16,18,20,22,24,26,28,-1,-1,-1,-1,-1,-1,-1,-1,-1,-1,-1,-1,-1,-1],"split_conditions":[1.6683226E1,-3.6E0,-5.1E0,9.717764E-1,6.2369866E0,9.35E1,2.5914667E1,1.9302453E-1,4.7E0,1.56205E0,1E0,-1.21E1,1.33E1,1E0,7.800641E0,8.956145E-2,4.8217397E-2,6.8235494E-2,1.21769644E-1,3.1243086E-2,8.5350126E-4,8.5350126E-4,-4.516573E-2,8.5350126E-4,-8.304167E-3,-2.6490344E-2,8.5350126E-4,-4.3604102E-2,-3.241792E-2],"split_indices":[0,5,5,7,0,2,0,0,6,9,11,5,6,27,9,0,0,0,0,0,0,0,0,0,0,0,0,0,0],"split_type":[0,0,0,0,0,0,0,0,0,0,0,0,0,0,0,0,0,0,0,0,0,0,0,0,0,0,0,0,0],"sum_hessian":[6.3082397E3,3.0574666E3,3.250773E3,5.519347E2,2.505532E3,2.3952661E2,3.0112463E3,3.878773E1,5.13147E2,3.0269513E2,2.202837E3,4.618221E1,1.9334439E2,1.7717347E3,1.2395117E3,3.6652185E2,1.4662509E2,1.5371588E2,1.4897923E2,6.472225E2,1.5556144E3,9.225523E0,3.6956688E1,1.88249E2,5.0954103E0,1.7037635E3,6.7971146E1,1.0102779E3,2.292338E2],"tree_param":{"num_deleted":"0","num_feature":"34","num_nodes":"29","size_leaf_vector":"1"}},{"base_weights":[-9.652457E-3,-9.487118E-1,3.512502E-1,-7.314781E-1,-5.2279897E-2,7.569299E-1,-1.0876477E0,1.162732E0,-7.610043E-1,-6.767613E-2,1.0882494E0,-4.958551E-1,-5.4624207E-2,1.8633172E-2,6.860295E-2,-4.0053245E-2,1.1105448E-5,-1.3006265E-2,3.4387585E-2,6.753608E-2,5.188751E-4,-2.6853222E-3,-3.6848284E-2],"categories":[],"categories_nodes":[],"categories_segments":[],"categories_sizes":[],"default_left":[0,0,0,0,0,0,0,0,0,0,0,0,0,0,0,0,0,0,0,0,0,0,0],"id":6,"left_children":[1,3,5,7,-1,9,11,13,15,17,19,21,-1,-1,-1,-1,-1,-1,-1,-1,-1,-1,-1],"loss_changes":[2.1363901E3,3.5224854E1,2.658907E3,3.339618E1,0E0,9.711367E2,1.4887695E0,1.6525173E-1,1.6933258E1,1.4919376E2,7.163269E2,1.1653202E0,0E0,0E0,0E0,0E0,0E0,0E0,0E0,0E0,0E0,0E0,0E0],"parents":[2147483647,0,0,1,1,2,2,3,3,5,5,6,6,7,7,8,8,9,9,10,10,11,11],"right_children":[2,4,6,8,-1,10,12,14,16,18,20,22,-1,-1,-1,-1,-1,-1,-1,-1,-1,-1,-1],"split_conditions":[1E-1,1E0,2.6E0,9.670746E-1,-5.2279897E-2,1.025E2,2.7E0,6.172806E-1,5.3E0,1.7E0,1.13E1,1.071E2,-5.4624207E-2,1.8633172E-2,6.860295E-2,-4.0053245E-2,1.1105448E-5,-1.3006265E-2,3.4387585E-2,6.753608E-2,5.188751E-4,-2.6853222E-3,-3.6848284E-2],"split_indices":[12,8,12,7,0,2,12,7,6,12,3,2,0,0,0,0,0,0,0,0,0,0,0],"split_type":[0,0,0,0,0,0,0,0,0,0,0,0,0,0,0,0,0,0,0,0,0,0,0],"sum_hessian":[6.295073E3,1.7471534E3,4.54792E3,5.457524E2,1.201401E3,3.5487021E3,9.9921783E2,6.9383693E0,5.38814E2,1.0171778E3,2.5315244E3,1.0616452E1,9.886014E2,3.118254E0,3.8201153E0,5.1240045E2,2.6413578E1,8.1223096E2,2.0494687E2,2.0350099E3,4.965145E2,5.341125E0,5.2753267E0],"tree_param":{"num_deleted":"0","num_feature":"34","num_nodes":"23","size_leaf_vector":"1"}},{"base_weights":[-1.3271718E-2,4.2430985E-1,-5.842953E-1,1.3846195E0,1.9453947E-1,-7.999271E-2,-6.4517546E-1,2.988291E0,1.2579633E0,1.3938936E0,-2.593941E-2,-4.7521248E-1,-7.999271E-2,-4.5056316E-1,-8.1255513E-1,1.6739455E-1,9.335278E-2,7.58054E-2,4.1781664E-2,8.484536E-2,3.4198854E-2,2.1372003E-2,-3.9996356E-3,-3.9996356E-3,-4.0061623E-2,-3.9996356E-3,-2.0923216E-2,-1.2833267E-2,-3.3409324E-2,-2.833775E-2,-4.4895705E-2],"categories":[],"categories_nodes":[],"categories_segments":[],"categories_sizes":[],"default_left":[0,0,0,0,0,0,0,0,0,0,0,0,0,0,0,0,0,0,0,0,0,0,0,0,0,0,0,0,0,0,0],"id":7,"left_children":[1,3,5,7,9,11,13,15,17,19,21,23,25,27,29,-1,-1,-1,-1,-1,-1,-1,-1,-1,-1,-1,-1,-1,-1,-1,-1],"loss_changes":[1.5711427E3,7.846777E2,1.275105E2,1.3255786E2,7.616899E2,6.8375435E0,8.296472E1,6.661072E0,6.7107544E1,1.3004364E2,1.4789203E2,1.1030958E1,9.500513E-1,5.005713E1,2.7808289E1,0E0,0E0,0E0,0E0,0E0,0E0,0E0,0E0,0E0,0E0,0E0,0E0,0E0,0E0,0E0,0E0],"parents":[2147483647,0,0,1,1,2,2,3,3,4,4,5,5,6,6,7,7,8,8,9,9,10,10,11,11,12,12,13,13,14,14],"right_children":[2,4,6,8,10,12,14,16,18,20,22,24,26,28,30,-1,-1,-1,-1,-1,-1,-1,-1,-1,-1,-1,-1,-1,-1,-1,-1],"split_conditions":[1.830437E1,-3.7E0,-5.2E0,9.898875E-1,6.8883963E0,9.35E1,1E0,1E0,1E0,1E0,9.503683E0,-1.21E1,3E0,2.658195E1,2.1572435E1,1.6739455E-1,9.335278E-2,7.58054E-2,4.1781664E-2,8.484536E-2,3.4198854E-2,2.1372003E-2,-3.9996356E-3,-3.9996356E-3,-4.0061623E-2,-3.9996356E-3,-2.0923216E-2,-1.2833267E-2,-3.3409324E-2,-2.833775E-2,-4.4895705E-2],"split_indices":[0,5,5,7,0,2,30,8,11,13,0,5,8,0,0,0,0,0,0,0,0,0,0,0,0,0,0,0,0,0,0],"split_type":[0,0,0,0,0,0,0,0,0,0,0,0,0,0,0,0,0,0,0,0,0,0,0,0,0,0,0,0,0,0,0],"sum_hessian":[6.2795684E3,3.554984E3,2.7245847E3,6.8400464E2,2.8709792E3,1.5673744E2,2.5678472E3,4.6471058E1,6.3753357E2,4.4451953E2,2.4264597E3,3.932634E1,1.17411095E2,1.1921295E3,1.3757177E3,3.1841274E1,1.4629785E1,3.917295E2,2.458041E2,3.446903E2,9.982922E1,5.977899E2,1.8286698E3,8.313477E0,3.1012865E1,1.1396103E2,3.4500706E0,6.339497E2,5.581798E2,3.6005054E2,1.0156671E3],"tree_param":{"num_deleted":"0","num_feature":"34","num_nodes":"31","size_leaf_vector":"1"}},{"base_weights":[1.6987624E-3,-9.3190557E-1,3.357379E-1,-1.8169512E-1,-1.0053406E0,7.012973E-1,-1.0834209E0,4.9587097E-2,-2.9675892E-2,-5.235338E-2,-9.426572E-1,-1.6141056E-1,1.1251074E0,-4.3077677E-1,-5.4375123E-2,-2.9675892E-2,2.6425494E-2,-4.432663E-2,-4.9743116E-2,-1.5245087E-2,2.4092421E-2,7.107383E-2,2.4092421E-2,-3.2570597E-2,-0E0],"categories":[],"categories_nodes":[],"categories_segments":[],"categories_sizes":[],"default_left":[0,0,0,0,0,0,0,0,0,0,0,0,0,0,0,0,0,0,0,0,0,0,0,0,0],"id":8,"left_children":[1,3,5,7,9,11,13,15,-1,-1,17,19,21,23,-1,-1,-1,-1,-1,-1,-1,-1,-1,-1,-1],"loss_changes":[1.964659E3,9.068567E1,2.4088232E3,2.3869396E1,1.9648438E0,1.3503538E3,1.2706299E0,4.7616703E1,0E0,0E0,1.3969116E0,1.2699491E2,5.138054E2,9.322326E-1,0E0,0E0,0E0,0E0,0E0,0E0,0E0,0E0,0E0,0E0,0E0],"parents":[2147483647,0,0,1,1,2,2,3,3,4,4,5,5,6,6,7,7,10,10,11,11,12,12,13,13],"right_children":[2,4,6,8,10,12,14,16,-1,-1,18,20,22,24,-1,-1,-1,-1,-1,-1,-1,-1,-1,-1,-1],"split_conditions":[1E-1,1E0,2.6E0,1E0,2.0893621E1,1.7856398E1,2.7E0,1.7391258E1,-2.9675892E-2,-5.235338E-2,1E0,1.9E0,1E0,1.8358688E1,-5.4375123E-2,-2.9675892E-2,2.6425494E-2,-4.432663E-2,-4.9743116E-2,-1.5245087E-2,2.4092421E-2,7.107383E-2,2.4092421E-2,-3.2570597E-2,-0E0],"split_indices":[12,11,12,15,1,1,12,1,0,0,15,12,15,1,0,0,0,0,0,0,0,0,0,0,0],"split_type":[0,0,0,0,0,0,0,0,0,0,0,0,0,0,0,0,0,0,0,0,0,0,0,0,0],"sum_hessian":[6.2926934E3,1.6568618E3,4.635831E3,1.4895004E2,1.5079119E3,3.68737E3,9.484612E2,1.16766235E2,3.2183804E1,8.816399E2,6.262719E2,1.2147281E3,2.472642E3,7.9803753E0,9.4048083E2,4.1747757E1,7.501848E1,4.3640305E2,1.8986884E2,1.01706415E3,1.9766396E2,1.7399126E3,7.3272943E2,4.041517E0,3.9388583E0],"tree_param":{"num_deleted":"0","num_feature":"34","num_nodes":"25","size_leaf_vector":"1"}},{"base_weights":[-1.1058951E-2,-5.158143E-1,4.2630765E-1,-5.913229E-1,-4.4753328E-2,1.2257992E0,2.2886753E-1,-4.10363E-1,-7.56132E-1,-5.2446026E-1,-4.4753328E-2,9.818101E-1,1.8636067E0,1.188518E-2,1.2591225E0,-2.8876001E-2,-8.985702E-3,-4.2533237E-2,-2.4947895E-2,-3.48868E-2,-1.423034E-2,-2.2376664E-3,-1.423034E-2,7.1135424E-2,3.5493378E-2,7.1135424E-2,1.10436335E-1,-2.2376664E-3,2.5371635E-2,8.864608E-2,3.486282E-2],"categories":[],"categories_nodes":[],"categories_segments":[],"categories_sizes":[],"default_left":[0,0,0,0,0,0,0,0,0,0,0,0,0,0,0,0,0,0,0,0,0,0,0,0,0,0,0,0,0,0,0],"id":9,"left_children":[1,3,5,7,9,11,13,15,17,19,21,23,25,27,29,-1,-1,-1,-1,-1,-1,-1,-1,-1,-1,-1,-1,-1,-1,-1,-1],"loss_changes":[1.383964E3,1.3140399E2,5.2946454E2,7.6919495E1,1.9955053E1,9.981415E1,6.026531E2,4.776863E1,3.2060547E1,4.1790447E0,3.187477E0,5.7417145E1,3.592462E1,1.641053E2,1.3269177E2,0E0,0E0,0E0,0E0,0E0,0E0,0E0,0E0,0E0,0E0,0E0,0E0,0E0,0E0,0E0,0E0],"parents":[2147483647,0,0,1,1,2,2,3,3,4,4,5,5,6,6,7,7,8,8,9,9,10,10,11,11,12,12,13,13,14,14],"right_children":[2,4,6,8,10,12,14,16,18,20,22,24,26,28,30,-1,-1,-1,-1,-1,-1,-1,-1,-1,-1,-1,-1,-1,-1,-1,-1],"split_conditions":[2.0263136E1,4.1E0,-3.9E0,1E0,1.243389E1,3.53491E1,5.4683147E1,1.5219123E1,1.7245989E1,5.9E0,1.46E1,-6.7E0,1.5033296E0,2.720294E0,1E0,-2.8876001E-2,-8.985702E-3,-4.2533237E-2,-2.4947895E-2,-3.48868E-2,-1.423034E-2,-2.2376664E-3,-1.423034E-2,7.1135424E-2,3.5493378E-2,7.1135424E-2,1.10436335E-1,-2.2376664E-3,2.5371635E-2,8.864608E-2,3.486282E-2],"split_indices":[1,6,5,30,1,1,1,1,1,6,3,5,9,9,15,0,0,0,0,0,0,0,0,0,0,0,0,0,0,0,0],"split_type":[0,0,0,0,0,0,0,0,0,0,0,0,0,0,0,0,0,0,0,0,0,0,0,0,0,0,0,0,0,0,0],"sum_hessian":[6.260588E3,2.9067522E3,3.3538357E3,2.5982024E3,3.0854984E2,6.616551E2,2.6921804E3,1.2431931E3,1.3550093E3,8.264915E1,2.259007E2,4.828186E2,1.7883652E2,2.2258928E3,4.6628766E2,7.178058E2,5.253873E2,9.860095E2,3.6899973E2,5.0951935E1,3.1697208E1,1.9385378E2,3.204692E1,1.7785347E2,3.0496512E2,5.9797783E1,1.1903873E2,1.6678555E3,5.5803735E2,2.408455E2,2.2544214E2],"tree_param":{"num_deleted":"0","num_feature":"34","num_nodes":"31","size_leaf_vector":"1"}},{"base_weights":[-8.112062E-3,-9.210406E-1,3.0022904E-1,-1.371664E-1,-1.0008819E0,6.331511E-1,-1.0777822E0,7.592547E-1,-5.6902415E-1,-2.8451208E-2,-1.0050743E0,1.3684071E0,3.0882013E-1,-4.305082E-1,-5.415335E-2,8.504657E-2,9.204677E-3,-2.8451208E-2,2.8756377E-3,-4.6116497E-2,-5.1526036E-2,9.073721E-2,4.1930683E-2,4.1930683E-2,2.913147E-3,-3.15764E-2,-0E0],"categories":[],"categories_nodes":[],"categories_segments":[],"categories_sizes":[],"default_left":[0,0,0,0,0,0,0,0,0,0,0,0,0,0,0,0,0,0,0,0,0,0,0,0,0,0,0],"id":10,"left_children":[1,3,5,7,9,11,13,15,17,-1,19,21,23,25,-1,-1,-1,-1,-1,-1,-1,-1,-1,-1,-1,-1,-1],"loss_changes":[1.7588197E3,9.804248E1,2.1432883E3,7.0740456E1,2.9146729E0,8.959492E2,1.8540039E0,2.9441055E1,5.2507935E0,0E0,1.0628662E0,2.8292578E2,4.304515E2,1.1846881E0,0E0,0E0,0E0,0E0,0E0,0E0,0E0,0E0,0E0,0E0,0E0,0E0,0E0],"parents":[2147483647,0,0,1,1,2,2,3,3,4,4,5,5,6,6,7,7,8,8,10,10,11,11,12,12,13,13],"right_children":[2,4,6,8,10,12,14,16,18,-1,20,22,24,26,-1,-1,-1,-1,-1,-1,-1,-1,-1,-1,-1,-1,-1],"split_conditions":[1E-1,1E0,2.6E0,-3.2E0,8.05623E-1,1.0800463E1,2.7E0,4.8E0,4.2E0,-2.8451208E-2,1E0,1E0,-3.6E0,9.9E0,-5.415335E-2,8.504657E-2,9.204677E-3,-2.8451208E-2,2.8756377E-3,-4.6116497E-2,-5.1526036E-2,9.073721E-2,4.1930683E-2,4.1930683E-2,2.913147E-3,-3.15764E-2,-0E0],"split_indices":[12,11,12,5,7,0,12,3,6,0,8,15,5,3,0,0,0,0,0,0,0,0,0,0,0,0,0],"split_type":[0,0,0,0,0,0,0,0,0,0,0,0,0,0,0,0,0,0,0,0,0,0,0,0,0,0,0],"sum_hessian":[6.2387964E3,1.5745515E3,4.664245E3,1.4663196E2,1.4279196E3,3.7578154E3,9.0642957E2,5.317574E1,9.3456215E1,8.651224E0,1.4192683E3,1.1477944E3,2.610021E3,9.442595E0,8.96987E2,1.834941E1,3.482633E1,8.202645E1,1.1429763E1,3.5595306E2,1.0633152E3,6.346408E2,5.1315356E2,6.984665E2,1.9115546E3,5.7838364E0,3.6587582E0],"tree_param":{"num_deleted":"0","num_feature":"34","num_nodes":"27","size_leaf_vector":"1"}},{"base_weights":[-1.724113E-2,-9.118235E-1,2.7332482E-1,6.333342E-2,-9.46756E-1,5.767988E-1,-1.0738393E0,6.004608E-1,-3.194315E-1,-8.5929394E-1,-5.2092522E-2,8.811345E-1,-1.3109043E-1,-4.8216757E-1,-5.3912617E-2,7.025733E-3,4.288175E-2,-5.6614783E-3,-3.1371057E-2,-2.2249669E-2,-4.659177E-2,7.4393034E-2,3.1629574E-2,-1.5379413E-2,1.8751103E-2,-2.7094076E-3,-3.410789E-2],"categories":[],"categories_nodes":[],"categories_segments":[],"categories_sizes":[],"default_left":[0,0,0,0,0,0,0,0,0,0,0,0,0,0,0,0,0,0,0,0,0,0,0,0,0,0,0],"id":11,"left_children":[1,3,5,7,9,11,13,15,17,19,-1,21,23,25,-1,-1,-1,-1,-1,-1,-1,-1,-1,-1,-1,-1,-1],"loss_changes":[1.6129562E3,5.245056E1,1.9153713E3,1.247433E1,1.0426392E1,8.2412354E2,9.139404E-1,5.5762444E0,1.9581392E0,2.2413391E1,0E0,4.0131982E2,1.284744E2,7.389071E-1,0E0,0E0,0E0,0E0,0E0,0E0,0E0,0E0,0E0,0E0,0E0,0E0,0E0],"parents":[2147483647,0,0,1,1,2,2,3,3,4,4,5,5,6,6,7,7,8,8,9,9,11,11,12,12,13,13],"right_children":[2,4,6,8,10,12,14,16,18,20,-1,22,24,26,-1,-1,-1,-1,-1,-1,-1,-1,-1,-1,-1,-1,-1],"split_conditions":[1E-1,-6.4E0,2.6E0,1.5045597E1,1.9366207E1,1.9275373E1,2.7E0,1E0,1.049E2,-3.2E0,-5.2092522E-2,8.670063E0,1.7E0,1.071E2,-5.3912617E-2,7.025733E-3,4.288175E-2,-5.6614783E-3,-3.1371057E-2,-2.2249669E-2,-4.659177E-2,7.4393034E-2,3.1629574E-2,-1.5379413E-2,1.8751103E-2,-2.7094076E-3,-3.410789E-2],"split_indices":[12,5,12,0,0,0,12,23,2,5,0,0,12,2,0,0,0,0,0,0,0,0,0,0,0,0,0],"split_type":[0,0,0,0,0,0,0,0,0,0,0,0,0,0,0,0,0,0,0,0,0,0,0,0,0,0,0],"sum_hessian":[6.195586E3,1.5183617E3,4.677224E3,5.195911E1,1.4664026E3,3.8185413E3,8.5868317E2,2.1690294E1,3.0268818E1,7.7705E2,6.893526E2,2.6706096E3,1.1479315E3,8.828515E0,8.498547E2,3.5249646E0,1.8165329E1,2.0741142E1,9.527676E0,1.189368E2,6.581132E2,7.726021E2,1.8980076E3,9.060969E2,2.4183458E2,4.4173694E0,4.4111457E0],"tree_param":{"num_deleted":"0","num_feature":"34","num_nodes":"27","size_leaf_vector":"1"}},{"base_weights":[-9.839344E-3,6.2212074E-1,-2.6213363E-1,9.6460617E-1,2.4112178E-1,-6.146107E-1,-7.601115E-2,1.2036486E0,3.923631E-1,9.555792E-1,1.7999355E-1,-4.1316622E-1,-8.0335927E-1,1.7999355E-1,-3.0261916E-1,6.657572E-2,8.999678E-3,8.999678E-3,4.3334138E-2,6.923439E-2,3.655335E-2,8.999678E-3,7.228394E-2,-2.6953196E-2,8.999678E-3,-4.541769E-2,-3.4157775E-2,8.999678E-3,-1.6939765E-2,8.999678E-3,-1.9684045E-2],"categories":[],"categories_nodes":[],"categories_segments":[],"categories_sizes":[],"default_left":[0,0,0,0,0,0,0,0,0,0,0,0,0,0,0,0,0,0,0,0,0,0,0,0,0,0,0,0,0,0,0],"id":12,"left_children":[1,3,5,7,9,11,13,15,17,19,21,23,25,27,29,-1,-1,-1,-1,-1,-1,-1,-1,-1,-1,-1,-1,-1,-1,-1,-1],"loss_changes":[9.86307E2,2.2958984E2,2.8985852E2,1.2571741E2,1.5059744E2,5.7339355E1,1.9961122E2,1.1017639E2,5.1826324E1,2.2594467E1,1.426189E1,5.8269463E1,8.649078E0,9.293779E1,8.578731E1,0E0,0E0,0E0,0E0,0E0,0E0,0E0,0E0,0E0,0E0,0E0,0E0,0E0,0E0,0E0,0E0],"parents":[2147483647,0,0,1,1,2,2,3,3,4,4,5,5,6,6,7,7,8,8,9,9,10,10,11,11,12,12,13,13,14,14],"right_children":[2,4,6,8,10,12,14,16,18,20,22,24,26,28,30,-1,-1,-1,-1,-1,-1,-1,-1,-1,-1,-1,-1,-1,-1,-1,-1],"split_conditions":[1E0,6.2E0,1.006E2,1E0,-4.4E0,1E0,4.9E0,1.84E1,1.132E2,-7.6E0,2.36E1,1E0,9.57E1,1E0,-3.6E0,6.657572E-2,8.999678E-3,8.999678E-3,4.3334138E-2,6.923439E-2,3.655335E-2,8.999678E-3,7.228394E-2,-2.6953196E-2,8.999678E-3,-4.541769E-2,-3.4157775E-2,8.999678E-3,-1.6939765E-2,8.999678E-3,-1.9684045E-2],"split_indices":[11,3,2,15,5,30,3,4,2,5,3,27,2,13,5,0,0,0,0,0,0,0,0,0,0,0,0,0,0,0,0],"split_type":[0,0,0,0,0,0,0,0,0,0,0,0,0,0,0,0,0,0,0,0,0,0,0,0,0,0,0,0,0,0,0],"sum_hessian":[6.177672E3,1.7612031E3,4.4164688E3,9.251747E2,8.360285E2,1.5236685E3,2.8928003E3,6.5040234E2,2.747723E2,2.5248174E2,5.8354675E2,7.4141284E2,7.822556E2,1.2239335E3,1.6688668E3,5.9660156E2,5.3800755E1,1.4126065E2,1.3351167E2,8.241002E1,1.7007172E2,5.773936E2,6.1531463E0,6.1645776E2,1.2495509E2,4.0832382E2,3.739318E2,8.8230884E2,3.416247E2,2.2775652E2,1.4411104E3],"tree_param":{"num_deleted":"0","num_feature":"34","num_nodes":"31","size_leaf_vector":"1"}},{"base_weights":[-1.732247E-2,-9.023757E-1,2.5266963E-1,-1.6020125E-2,-9.3400913E-1,5.347516E-1,-1.0684309E0,4.1124964E-1,-8.0752546E-1,-7.606038E-1,-5.0582267E-2,-1.824957E-1,8.293745E-1,-4.1398975E-1,-5.370912E-2,7.016929E-2,-9.906895E-3,-9.906895E-3,-4.3697868E-2,-2.981233E-2,-4.430623E-2,-1.7021267E-2,1.617197E-2,3.2054394E-2,7.198512E-2,-2.8743526E-2,-4.399152E-4],"categories":[],"categories_nodes":[],"categories_segments":[],"categories_sizes":[],"default_left":[0,0,0,0,0,0,0,0,0,0,0,0,0,0,0,0,0,0,0,0,0,0,0,0,0,0,0],"id":13,"left_children":[1,3,5,7,9,11,13,15,17,19,-1,21,23,25,-1,-1,-1,-1,-1,-1,-1,-1,-1,-1,-1,-1,-1],"loss_changes":[1.4707181E3,3.985254E1,1.757835E3,1.9691599E1,1.7092896E1,8.2181177E2,1.9078369E0,2.5328283E1,1.8078518E-1,1.357309E1,0E0,1.03345375E2,3.1482202E2,6.001775E-1,0E0,0E0,0E0,0E0,0E0,0E0,0E0,0E0,0E0,0E0,0E0,0E0,0E0],"parents":[2147483647,0,0,1,1,2,2,3,3,4,4,5,5,6,6,7,7,8,8,9,9,11,11,12,12,13,13],"right_children":[2,4,6,8,10,12,14,16,18,20,-1,22,24,26,-1,-1,-1,-1,-1,-1,-1,-1,-1,-1,-1,-1,-1],"split_conditions":[1E-1,-6.4E0,2.6E0,1E0,1E0,1.768894E1,2.7E0,4.8E0,1.5E0,1.8504324E1,-5.0582267E-2,1.7E0,4.762298E1,2.0263136E1,-5.370912E-2,7.016929E-2,-9.906895E-3,-9.906895E-3,-4.3697868E-2,-2.981233E-2,-4.430623E-2,-1.7021267E-2,1.617197E-2,3.2054394E-2,7.198512E-2,-2.8743526E-2,-4.399152E-4],"split_indices":[12,5,12,8,8,1,12,3,6,0,0,12,1,1,0,0,0,0,0,0,0,0,0,0,0,0,0],"split_type":[0,0,0,0,0,0,0,0,0,0,0,0,0,0,0,0,0,0,0,0,0,0,0,0,0,0,0],"sum_hessian":[6.1447007E3,1.435663E3,4.7090376E3,5.012073E1,1.3855422E3,3.8817693E3,8.272682E2,3.27635E1,1.7357231E1,4.3715753E2,9.483847E2,1.1299695E3,2.7517998E3,9.236023E0,8.1803217E2,1.2552039E1,2.021146E1,3.196243E0,1.4160988E1,2.625152E2,1.7464235E2,8.90064E2,2.3990541E2,2.1067776E3,6.4502234E2,5.1283193E0,4.107703E0],"tree_param":{"num_deleted":"0","num_feature":"34","num_nodes":"27","size_leaf_vector":"1"}},{"base_weights":[-1.1851591E-2,5.3340685E-1,-2.4111886E-1,2.14466E0,4.666849E-1,-4.4948298E-1,4.8852555E-2,2.612552E-2,1.1254858E-1,6.9874203E-1,1.46144E-1,1.46144E-1,-4.997583E-1,1.46144E-1,-4.0074483E-1,4.356436E-2,1.3523056E-2,4.384373E-2,7.3072E-3,-2.9519362E-2,7.3072E-3,-3.8395885E-2,-2.14266E-2,7.3072E-3,-2.1617495E-2,-2.519978E-2,7.3072E-3],"categories":[],"categories_nodes":[],"categories_segments":[],"categories_sizes":[],"default_left":[0,0,0,0,0,0,0,0,0,0,0,0,0,0,0,0,0,0,0,0,0,0,0,0,0,0,0],"id":14,"left_children":[1,3,5,7,9,11,13,-1,-1,15,17,19,21,23,25,-1,-1,-1,-1,-1,-1,-1,-1,-1,-1,-1,-1],"loss_changes":[7.7061414E2,1.9471497E2,2.625291E2,9.240875E0,1.5105923E2,8.747406E1,1.2124501E2,0E0,0E0,7.949902E1,6.498362E1,2.5760273E1,4.44516E1,1.0073897E2,3.0093307E1,0E0,0E0,0E0,0E0,0E0,0E0,0E0,0E0,0E0,0E0,0E0,0E0],"parents":[2147483647,0,0,1,1,2,2,3,3,4,4,5,5,6,6,9,9,10,10,11,11,12,12,13,13,14,14],"right_children":[2,4,6,8,10,12,14,-1,-1,16,18,20,22,24,26,-1,-1,-1,-1,-1,-1,-1,-1,-1,-1,-1,-1],"split_conditions":[1E0,9.9747E-1,1.071E2,3.840066E-2,7.9E0,-5E0,1E0,2.612552E-2,1.1254858E-1,1E0,-5.8E0,9.65E1,9.32E1,1.08E1,1.148E2,4.356436E-2,1.3523056E-2,4.384373E-2,7.3072E-3,-2.9519362E-2,7.3072E-3,-3.8395885E-2,-2.14266E-2,7.3072E-3,-2.1617495E-2,-2.519978E-2,7.3072E-3],"split_indices":[11,7,2,7,3,5,13,0,0,15,5,2,2,3,2,0,0,0,0,0,0,0,0,0,0,0,0],"split_type":[0,0,0,0,0,0,0,0,0,0,0,0,0,0,0,0,0,0,0,0,0,0,0,0,0,0,0],"sum_hessian":[6.1554346E3,1.8206387E3,4.334796E3,6.962001E1,1.7510187E3,2.5226936E3,1.8121023E3,5.29897E0,6.432104E1,1.0819056E3,6.6911304E2,1.6807823E2,2.3546155E3,1.3533167E3,4.5878564E2,7.6889734E2,3.1300827E2,1.1841115E2,5.507019E2,4.4207314E1,1.23870926E2,4.8858035E2,1.866035E3,1.0558944E3,2.974222E2,3.951026E2,6.3683033E1],"tree_param":{"num_deleted":"0","num_feature":"34","num_nodes":"27","size_leaf_vector":"1"}},{"base_weights":[-8.948287E-3,-8.8370967E-1,2.4316265E-1,-6.4597505E-1,-9.990294E-1,5.007525E-1,-1.0638374E0,-8.2250226E-1,-3.9461678E-1,-4.1125115E-2,-5.029847E-2,-1.3683435E-1,7.536897E-1,-3.981544E-1,-5.3495463E-2,-4.1125115E-2,-3.0427976E-2,-2.400624E-3,-3.0427976E-2,-1.47263855E-2,1.5421385E-2,4.7110487E-2,1.5421385E-2,-3.5486106E-2,3.2529616E-4],"categories":[],"categories_nodes":[],"categories_segments":[],"categories_sizes":[],"default_left":[0,0,0,0,0,0,0,0,0,0,0,0,0,0,0,0,0,0,0,0,0,0,0,0,0],"id":15,"left_children":[1,3,5,7,9,11,13,15,17,-1,-1,19,21,23,-1,-1,-1,-1,-1,-1,-1,-1,-1,-1,-1],"loss_changes":[1.3506874E3,3.6185425E1,1.6009073E3,2.4014053E1,7.3394775E-1,6.4093585E2,1.9795532E0,3.0007477E0,3.3179893E1,0E0,0E0,9.7145004E1,2.5461975E2,2.0657234E0,0E0,0E0,0E0,0E0,0E0,0E0,0E0,0E0,0E0,0E0,0E0],"parents":[2147483647,0,0,1,1,2,2,3,3,4,4,5,5,6,6,7,7,8,8,11,11,12,12,13,13],"right_children":[2,4,6,8,10,12,14,16,18,-1,-1,20,22,24,-1,-1,-1,-1,-1,-1,-1,-1,-1,-1,-1],"split_conditions":[1E-1,1E0,2.6E0,2.1146482E1,8.05623E-1,1.768894E1,2.7E0,4.1E0,1E0,-4.1125115E-2,-5.029847E-2,1.7E0,1E0,1E0,-5.3495463E-2,-4.1125115E-2,-3.0427976E-2,-2.400624E-3,-3.0427976E-2,-1.47263855E-2,1.5421385E-2,4.7110487E-2,1.5421385E-2,-3.5486106E-2,3.2529616E-4],"split_indices":[12,8,12,1,7,1,12,6,15,0,0,12,15,18,0,0,0,0,0,0,0,0,0,0,0],"split_type":[0,0,0,0,0,0,0,0,0,0,0,0,0,0,0,0,0,0,0,0,0,0,0,0,0],"sum_hessian":[6.1140713E3,1.367201E3,4.74687E3,4.5230386E2,9.148973E2,3.9667085E3,7.801618E2,2.3705423E2,2.1524962E2,6.265897E0,9.0863135E2,1.1263707E3,2.840338E3,8.999502E0,7.711623E2,1.9691931E2,4.0134914E1,1.3870406E2,7.654558E1,8.8063464E2,2.4573611E2,2.0347931E3,8.055447E2,4.930857E0,4.068645E0],"tree_param":{"num_deleted":"0","num_feature":"34","num_nodes":"25","size_leaf_vector":"1"}},{"base_weights":[-5.744993E-3,-8.7785995E-1,2.3623405E-1,-1.3055417E-1,-9.66543E-1,4.7711563E-1,-1.0593752E0,8.034912E-2,-2.742743E-2,-9.7107595E-1,-2.742743E-2,-2.7704388E-1,6.80995E-1,-3.9763916E-1,-5.328555E-2,-2.742743E-2,2.2614218E-2,-5.0708305E-2,-4.508389E-2,1.0098778E-2,-1.90801E-2,2.3382083E-2,5.3317823E-2,-0E0,-3.4115467E-2],"categories":[],"categories_nodes":[],"categories_segments":[],"categories_sizes":[],"default_left":[0,0,0,0,0,0,0,0,0,0,0,0,0,0,0,0,0,0,0,0,0,0,0,0,0],"id":16,"left_children":[1,3,5,7,9,11,13,15,-1,17,-1,19,21,23,-1,-1,-1,-1,-1,-1,-1,-1,-1,-1,-1],"loss_changes":[1.2838491E3,8.692096E1,1.4864878E3,2.1071026E1,2.918335E0,6.180219E2,1.9524536E0,3.4561825E1,0E0,1.6682129E0,0E0,6.59549E1,2.5887744E2,1.5512226E0,0E0,0E0,0E0,0E0,0E0,0E0,0E0,0E0,0E0,0E0,0E0],"parents":[2147483647,0,0,1,1,2,2,3,3,4,4,5,5,6,6,7,7,9,9,11,11,12,12,13,13],"right_children":[2,4,6,8,10,12,14,16,-1,18,-1,20,22,24,-1,-1,-1,-1,-1,-1,-1,-1,-1,-1,-1],"split_conditions":[1E-1,1E0,2.6E0,1E0,1.176E2,1.5910199E1,2.7E0,1.7245989E1,-2.742743E-2,2.1940111E1,-2.742743E-2,1E0,3.6905224E1,1.071E2,-5.328555E-2,-2.742743E-2,2.2614218E-2,-5.0708305E-2,-4.508389E-2,1.0098778E-2,-1.90801E-2,2.3382083E-2,5.3317823E-2,-0E0,-3.4115467E-2],"split_indices":[12,11,12,15,2,1,12,1,0,1,0,29,1,2,0,0,0,0,0,0,0,0,0,0,0],"split_type":[0,0,0,0,0,0,0,0,0,0,0,0,0,0,0,0,0,0,0,0,0,0,0,0,0],"sum_hessian":[6.072889E3,1.318327E3,4.7545625E3,1.4097292E2,1.1773541E3,4.010562E3,7.4400024E2,1.1330886E2,2.766405E1,1.1718776E3,5.476449E0,8.528093E2,3.1577527E3,9.013776E0,7.3498645E2,3.5044853E1,7.826401E1,7.017313E2,4.7014627E2,8.5270805E1,7.675385E2,2.0361654E3,1.1215874E3,4.5525103E0,4.4612656E0],"tree_param":{"num_deleted":"0","num_feature":"34","num_nodes":"25","size_leaf_vector":"1"}},{"base_weights":[-3.2384128E-3,-8.6113244E-1,2.2593096E-1,-1.3686015E-1,-9.140442E-1,4.5050788E-1,-1.0553898E0,3.2928956E-1,-4.3356862E-2,6.525737E-1,-9.252199E-1,-2.7911764E-1,6.428186E-1,-3.612452E-1,-5.3103067E-2,-7.902762E-3,5.3709127E-2,-1.1992654E-2,6.7857906E-2,-3.8459267E-2,-4.9775112E-2,-2.1251125E-2,9.092525E-3,2.288535E-2,5.316177E-2,-0E0,-3.2397103E-2],"categories":[],"categories_nodes":[],"categories_segments":[],"categories_sizes":[],"default_left":[0,0,0,0,0,0,0,0,0,0,0,0,0,0,0,0,0,0,0,0,0,0,0,0,0,0,0],"id":17,"left_children":[1,3,5,7,9,11,13,15,-1,17,19,21,23,25,-1,-1,-1,-1,-1,-1,-1,-1,-1,-1,-1,-1,-1],"loss_changes":[1.1867273E3,4.8140015E1,1.3709467E3,3.2387085E1,2.2735474E1,5.692607E2,2.1759033E0,2.1919598E1,0E0,7.96519E0,1.1329529E1,6.067105E1,2.4866272E2,1.4381127E0,0E0,0E0,0E0,0E0,0E0,0E0,0E0,0E0,0E0,0E0,0E0,0E0,0E0],"parents":[2147483647,0,0,1,1,2,2,3,3,4,4,5,5,6,6,7,7,9,9,10,10,11,11,12,12,13,13],"right_children":[2,4,6,8,10,12,14,16,-1,18,20,22,24,26,-1,-1,-1,-1,-1,-1,-1,-1,-1,-1,-1,-1,-1],"split_conditions":[1E-1,-5.1E0,2.6E0,1E0,8.05623E-1,1.5910199E1,2.7E0,2.4987955E1,-4.3356862E-2,4.622178E1,1E0,1.7E0,4.0383396E1,1.063E2,-5.3103067E-2,-7.902762E-3,5.3709127E-2,-1.1992654E-2,6.7857906E-2,-3.8459267E-2,-4.9775112E-2,-2.1251125E-2,9.092525E-3,2.288535E-2,5.316177E-2,-0E0,-3.2397103E-2],"split_indices":[12,5,12,8,7,1,12,1,0,1,8,12,1,2,0,0,0,0,0,0,0,0,0,0,0,0,0],"split_type":[0,0,0,0,0,0,0,0,0,0,0,0,0,0,0,0,0,0,0,0,0,0,0,0,0,0,0],"sum_hessian":[6.025052E3,1.2694691E3,4.7555825E3,8.7558945E1,1.1819102E3,4.0478103E3,7.077722E2,5.369678E1,3.3862164E1,7.2416596E0,1.1746686E3,8.436199E2,3.2041904E3,8.5012665E0,6.9927094E2,3.300664E1,2.069014E1,3.46386E0,3.7777996E0,3.7441928E2,8.0024927E2,6.5040784E2,1.9321208E2,2.2283872E3,9.758033E2,4.494508E0,4.0067587E0],"tree_param":{"num_deleted":"0","num_feature":"34","num_nodes":"27","size_leaf_vector":"1"}},{"base_weights":[-1.1132027E-2,-8.512052E-1,2.0394252E-1,-1.1763677E-1,-9.4453466E-1,4.101729E-1,-1.051495E0,6.378241E-1,-5.310857E-1,-5.025637E-2,-8.6233914E-1,-2.8192005E-1,5.824735E-1,-3.5551876E-1,-5.2922506E-2,-7.8998134E-4,6.2227257E-2,-2.6554286E-2,6.74679E-3,-3.7355438E-2,-4.6686664E-2,-2.207944E-2,6.259939E-3,1.07073806E-1,2.6692212E-2,-2.8438402E-2,-0E0],"categories":[],"categories_nodes":[],"categories_segments":[],"categories_sizes":[],"default_left":[0,0,0,0,0,0,0,0,0,0,0,0,0,0,0,0,0,0,0,0,0,0,0,0,0,0,0],"id":18,"left_children":[1,3,5,7,9,11,13,15,17,-1,19,21,23,25,-1,-1,-1,-1,-1,-1,-1,-1,-1,-1,-1,-1,-1],"loss_changes":[1.093272E3,8.382605E1,1.2474463E3,5.2971313E1,3.6958008E0,4.9391577E2,2.1898193E0,2.33989E1,5.352915E0,0E0,3.3164978E0,5.4170593E1,2.4950684E2,1.159586E0,0E0,0E0,0E0,0E0,0E0,0E0,0E0,0E0,0E0,0E0,0E0,0E0,0E0],"parents":[2147483647,0,0,1,1,2,2,3,3,4,4,5,5,6,6,7,7,8,8,10,10,11,11,12,12,13,13],"right_children":[2,4,6,8,10,12,14,16,18,-1,20,22,24,26,-1,-1,-1,-1,-1,-1,-1,-1,-1,-1,-1,-1,-1],"split_conditions":[1E-1,1E0,2.6E0,-3.2E0,2.0893621E1,1.5843053E1,2.7E0,2.4987955E1,4.2E0,-5.025637E-2,-1.8E0,1.6E0,9.9747E-1,9.9E0,-5.2922506E-2,-7.8998134E-4,6.2227257E-2,-2.6554286E-2,6.74679E-3,-3.7355438E-2,-4.6686664E-2,-2.207944E-2,6.259939E-3,1.07073806E-1,2.6692212E-2,-2.8438402E-2,-0E0],"split_indices":[12,11,12,5,1,1,12,1,6,0,5,12,7,3,0,0,0,0,0,0,0,0,0,0,0,0,0],"split_type":[0,0,0,0,0,0,0,0,0,0,0,0,0,0,0,0,0,0,0,0,0,0,0,0,0,0,0],"sum_hessian":[6.0394385E3,1.2303085E3,4.80913E3,1.399761E2,1.0903324E3,4.132096E3,6.7703357E2,5.3785446E1,8.619065E1,6.112168E2,4.791156E2,8.228235E2,3.3092727E3,8.441488E0,6.6859204E2,2.6432928E1,2.7352516E1,7.635301E1,9.837642E0,2.170069E2,2.621087E2,5.917879E2,2.3103563E2,9.7187546E1,3.2120852E3,5.004927E0,3.436561E0],"tree_param":{"num_deleted":"0","num_feature":"34","num_nodes":"27","size_leaf_vector":"1"}},{"base_weights":[-1.6204877E-2,-8.41692E-1,1.876633E-1,-1.2936312E-1,-9.390319E-1,3.824779E-1,-1.0465679E0,4.9241486E-1,-5.341975E-1,-7.203219E-1,-9.6232224E-1,1.8383273E-1,8.742166E-1,-2.9556563E-1,-5.276368E-2,-2.9252477E-3,5.0602622E-2,-2.6709875E-2,-2.0100972E-4,-4.6212308E-2,-2.6709875E-2,-4.839127E-2,-2.6709875E-2,2.6451234E-2,3.1144943E-4,6.085078E-2,2.6451234E-2,2.7990662E-3,-3.299364E-2],"categories":[],"categories_nodes":[],"categories_segments":[],"categories_sizes":[],"default_left":[0,0,0,0,0,0,0,0,0,0,0,0,0,0,0,0,0,0,0,0,0,0,0,0,0,0,0,0,0],"id":19,"left_children":[1,3,5,7,9,11,13,15,17,19,21,23,25,27,-1,-1,-1,-1,-1,-1,-1,-1,-1,-1,-1,-1,-1,-1,-1],"loss_changes":[1.0061017E3,8.147241E1,1.1528656E3,4.01427E1,3.812439E0,4.0390692E2,3.2733765E0,1.8305288E1,3.4615479E0,3.6012573E0,2.2665405E0,2.3267584E2,1.6015326E2,2.1943216E0,0E0,0E0,0E0,0E0,0E0,0E0,0E0,0E0,0E0,0E0,0E0,0E0,0E0,0E0,0E0],"parents":[2147483647,0,0,1,1,2,2,3,3,4,4,5,5,6,6,7,7,8,8,9,9,10,10,11,11,12,12,13,13],"right_children":[2,4,6,8,10,12,14,16,18,20,22,24,26,28,-1,-1,-1,-1,-1,-1,-1,-1,-1,-1,-1,-1,-1,-1,-1],"split_conditions":[1E-1,1E0,2.6E0,-3.2E0,-4E0,3.6905224E1,2.7E0,2.4987955E1,5.3574173E1,2.0032013E1,5.2E0,-3.6E0,1E0,1.071E2,-5.276368E-2,-2.9252477E-3,5.0602622E-2,-2.6709875E-2,-2.0100972E-4,-4.6212308E-2,-2.6709875E-2,-4.839127E-2,-2.6709875E-2,2.6451234E-2,3.1144943E-4,6.085078E-2,2.6451234E-2,2.7990662E-3,-3.299364E-2],"split_indices":[12,11,12,5,5,1,12,1,1,1,6,5,15,2,0,0,0,0,0,0,0,0,0,0,0,0,0,0,0],"split_type":[0,0,0,0,0,0,0,0,0,0,0,0,0,0,0,0,0,0,0,0,0,0,0,0,0,0,0,0,0],"sum_hessian":[5.96652E3,1.1809412E3,4.785579E3,1.4315256E2,1.0377886E3,4.134727E3,6.5085187E2,5.7843628E1,8.530894E1,1.0808945E2,9.2969916E2,2.9477173E3,1.18701E3,8.917427E0,6.4193445E2,2.8471138E1,2.9372488E1,7.1077515E1,1.4231423E1,4.9149784E1,5.8939663E1,9.21261E2,8.4381895E0,8.097201E2,2.137997E3,6.361356E2,5.508743E2,4.701145E0,4.216282E0],"tree_param":{"num_deleted":"0","num_feature":"34","num_nodes":"29","size_leaf_vector":"1"}},{"base_weights":[-3.778251E-3,-4.2800543E-1,2.4156533E-1,-6.0122824E-1,-2.2875556E-1,5.741551E-1,3.0948186E-2,-4.5529792E-1,-7.6099265E-1,-3.6250472E-1,-9.322005E-2,1.666289E0,5.173783E-1,-9.322005E-2,3.0255163E-1,-2.0749597E-2,-3.2370802E-2,-4.118304E-2,-2.0749597E-2,-5.401701E-3,-2.0749597E-2,-4.6610027E-3,-2.0749597E-2,2.417055E-2,8.498672E-2,3.571434E-2,1.5127582E-2,5.233289E-3,-4.6610027E-3,1.5127582E-2,5.233289E-3],"categories":[],"categories_nodes":[],"categories_segments":[],"categories_sizes":[],"default_left":[0,0,0,0,0,0,0,0,0,0,0,0,0,0,0,0,0,0,0,0,0,0,0,0,0,0,0,0,0,0,0],"id":20,"left_children":[1,3,5,7,9,11,13,15,17,19,21,23,25,27,29,-1,-1,-1,-1,-1,-1,-1,-1,-1,-1,-1,-1,-1,-1,-1,-1],"loss_changes":[6.212812E2,7.5136444E1,2.6457388E2,2.6508545E1,3.7135323E1,8.952765E1,9.833174E1,9.849915E0,1.680252E1,3.227009E1,3.998804E0,5.898895E-1,6.936371E1,5.7356094E1,3.1569122E1,0E0,0E0,0E0,0E0,0E0,0E0,0E0,0E0,0E0,0E0,0E0,0E0,0E0,0E0,0E0,0E0],"parents":[2147483647,0,0,1,1,2,2,3,3,4,4,5,5,6,6,7,7,8,8,9,9,10,10,11,11,12,12,13,13,14,14],"right_children":[2,4,6,8,10,12,14,16,18,20,22,24,26,28,30,-1,-1,-1,-1,-1,-1,-1,-1,-1,-1,-1,-1,-1,-1,-1,-1],"split_conditions":[1.9176088E1,1.5037275E1,1E0,1E0,3.2E0,9.958624E-1,4.088937E1,2.85E1,4.5E0,1E0,2E0,8.9272596E-2,-2.1E0,-3.6E0,1E0,-2.0749597E-2,-3.2370802E-2,-4.118304E-2,-2.0749597E-2,-5.401701E-3,-2.0749597E-2,-4.6610027E-3,-2.0749597E-2,2.417055E-2,8.498672E-2,3.571434E-2,1.5127582E-2,5.233289E-3,-4.6610027E-3,1.5127582E-2,5.233289E-3],"split_indices":[1,1,11,30,6,7,1,4,6,30,11,7,5,5,13,0,0,0,0,0,0,0,0,0,0,0,0,0,0,0,0],"split_type":[0,0,0,0,0,0,0,0,0,0,0,0,0,0,0,0,0,0,0,0,0,0,0,0,0,0,0,0,0,0,0],"sum_hessian":[5.9579053E3,2.183292E3,3.7746133E3,1.1644255E3,1.0188665E3,1.4612686E3,2.3133447E3,6.142202E2,5.5020526E2,7.6712006E2,2.5174649E2,6.897591E1,1.3922927E3,1.6851171E3,6.282276E2,4.1253394E2,2.0168631E2,4.9612753E2,5.4077744E1,3.6932935E2,3.977907E2,2.222503E2,2.9496178E1,3.1575735E0,6.581833E1,7.86654E2,6.0563873E2,3.2128534E2,1.3638318E3,3.8759756E2,2.4063007E2],"tree_param":{"num_deleted":"0","num_feature":"34","num_nodes":"31","size_leaf_vector":"1"}},{"base_weights":[-5.3281942E-3,-8.3958715E-1,1.8980952E-1,-1.3466725E-1,-9.411767E-1,3.7339747E-1,-5.2393E-2,4.6150023E-1,-5.3792197E-1,-2.6896099E-2,-9.466026E-1,-2.247417E-1,5.1482505E-1,-1.1167225E-4,4.412737E-2,-2.6896099E-2,1.8113836E-3,-5.036964E-2,-4.459632E-2,-1.766056E-2,7.2520836E-3,2.1206718E-2,5.827933E-2],"categories":[],"categories_nodes":[],"categories_segments":[],"categories_sizes":[],"default_left":[0,0,0,0,0,0,0,0,0,0,0,0,0,0,0,0,0,0,0,0,0,0,0],"id":21,"left_children":[1,3,5,7,9,11,-1,13,15,-1,17,19,21,-1,-1,-1,-1,-1,-1,-1,-1,-1,-1],"loss_changes":[9.677881E2,8.006915E1,1.0947759E3,3.876121E1,2.9697266E0,3.5528497E2,0E0,1.2885174E1,3.9368267E0,0E0,1.4578247E0,6.540988E1,1.9941833E2,0E0,0E0,0E0,0E0,0E0,0E0,0E0,0E0,0E0,0E0],"parents":[2147483647,0,0,1,1,2,2,3,3,4,4,5,5,7,7,8,8,10,10,11,11,12,12],"right_children":[2,4,6,8,10,12,-1,14,16,-1,18,20,22,-1,-1,-1,-1,-1,-1,-1,-1,-1,-1],"split_conditions":[1E-1,1E0,2.6E0,-3.2E0,5.5538166E-1,1.5843053E1,-5.2393E-2,2.4987955E1,4.2E0,-2.6896099E-2,1.8451706E1,8.041144E0,5.7943836E1,-1.1167225E-4,4.412737E-2,-2.6896099E-2,1.8113836E-3,-5.036964E-2,-4.459632E-2,-1.766056E-2,7.2520836E-3,2.1206718E-2,5.827933E-2],"split_indices":[12,11,12,5,7,1,0,1,6,0,1,9,1,0,0,0,0,0,0,0,0,0,0],"split_type":[0,0,0,0,0,0,0,0,0,0,0,0,0,0,0,0,0,0,0,0,0,0,0],"sum_hessian":[5.9325684E3,1.1238418E3,4.8087266E3,1.4276729E2,9.810745E2,4.1891377E3,6.195892E2,5.9549603E1,8.321768E1,4.717952E0,9.7635657E2,8.001886E2,3.388949E3,2.8719902E1,3.0829699E1,7.326129E1,9.95639E0,4.4149673E2,5.3485986E2,7.0297626E2,9.7212326E1,2.9780037E3,4.1094525E2],"tree_param":{"num_deleted":"0","num_feature":"34","num_nodes":"23","size_leaf_vector":"1"}},{"base_weights":[-3.5845228E-3,-8.215485E-1,1.8031092E-1,-1.157032E-1,-9.254407E-1,3.5180283E-1,-1.0411588E0,4.6054637E-1,-5.2057195E-1,-4.960538E-2,-8.3945173E-1,-2.2799653E-1,4.8035583E-1,-3.080073E-1,-5.245735E-2,-2.6028598E-2,3.818996E-2,-2.6028598E-2,2.4228652E-3,-3.0625073E-2,-4.5578826E-2,-2.0284554E-2,6.3089826E-3,6.3089826E-3,3.097308E-2,-2.5099246E-2,-0E0],"categories":[],"categories_nodes":[],"categories_segments":[],"categories_sizes":[],"default_left":[0,0,0,0,0,0,0,0,0,0,0,0,0,0,0,0,0,0,0,0,0,0,0,0,0,0,0],"id":22,"left_children":[1,3,5,7,9,11,13,15,17,-1,19,21,23,25,-1,-1,-1,-1,-1,-1,-1,-1,-1,-1,-1,-1,-1],"loss_changes":[8.872206E2,7.879651E1,1.00874536E3,3.7252533E1,3.7241821E0,3.150854E2,2.4587402E0,2.1608181E1,3.849842E0,0E0,5.8052063E0,5.4499786E1,1.7927484E2,8.397827E-1,0E0,0E0,0E0,0E0,0E0,0E0,0E0,0E0,0E0,0E0,0E0,0E0,0E0],"parents":[2147483647,0,0,1,1,2,2,3,3,4,4,5,5,6,6,7,7,8,8,10,10,11,11,12,12,13,13],"right_children":[2,4,6,8,10,12,14,16,18,-1,20,22,24,26,-1,-1,-1,-1,-1,-1,-1,-1,-1,-1,-1,-1,-1],"split_conditions":[1E-1,1E0,2.6E0,-3.2E0,2.0893621E1,1.5651396E1,2.7E0,1E0,4.2E0,-4.960538E-2,1E0,1.5E0,1.2806249E0,9.9E0,-5.245735E-2,-2.6028598E-2,3.818996E-2,-2.6028598E-2,2.4228652E-3,-3.0625073E-2,-4.5578826E-2,-2.0284554E-2,6.3089826E-3,6.3089826E-3,3.097308E-2,-2.5099246E-2,-0E0],"split_indices":[12,11,12,5,1,1,12,23,6,0,8,12,9,3,0,0,0,0,0,0,0,0,0,0,0,0,0],"split_type":[0,0,0,0,0,0,0,0,0,0,0,0,0,0,0,0,0,0,0,0,0,0,0,0,0,0,0],"sum_hessian":[5.885557E3,1.0795444E3,4.8060127E3,1.396692E2,9.398752E2,4.215937E3,5.900758E2,5.9948055E1,7.972115E1,5.142724E2,4.2560284E2,7.641289E2,3.4518079E3,7.8873825E0,5.821884E2,1.2555939E1,4.7392117E1,6.99149E1,9.806257E0,1.08888275E2,3.1671457E2,5.298661E2,2.342628E2,9.3696606E2,2.5148418E3,4.2852244E0,3.6021578E0],"tree_param":{"num_deleted":"0","num_feature":"34","num_nodes":"27","size_leaf_vector":"1"}},{"base_weights":[-1.0353235E-2,-8.1533366E-1,1.6349353E-1,-1.2336988E-1,-9.211321E-1,3.2140836E-1,-1.0378196E0,5.013492E-1,-5.22251E-1,-7.093201E-1,-9.4383836E-1,1.5760024E-1,7.474377E-1,-2.8162697E-1,-5.2311648E-2,2.0281116E-3,4.369433E-2,-2.611255E-2,-9.789217E-3,-4.600624E-2,-2.611255E-2,-2.611255E-2,-4.756401E-2,2.262595E-2,-8.219887E-4,5.322227E-2,2.262595E-2,3.6296987E-3,-3.1153202E-2],"categories":[],"categories_nodes":[],"categories_segments":[],"categories_sizes":[],"default_left":[0,0,0,0,0,0,0,0,0,0,0,0,0,0,0,0,0,0,0,0,0,0,0,0,0,0,0,0,0],"id":23,"left_children":[1,3,5,7,9,11,13,15,17,19,21,23,25,27,-1,-1,-1,-1,-1,-1,-1,-1,-1,-1,-1,-1,-1,-1,-1],"loss_changes":[8.232436E2,7.58855E1,9.1775586E2,3.682368E1,2.9158325E0,2.9793024E2,2.6073608E0,9.458874E0,3.326437E0,3.3145714E0,3.0264282E0,1.856066E2,1.3580078E2,1.9366944E0,0E0,0E0,0E0,0E0,0E0,0E0,0E0,0E0,0E0,0E0,0E0,0E0,0E0,0E0,0E0],"parents":[2147483647,0,0,1,1,2,2,3,3,4,4,5,5,6,6,7,7,8,8,9,9,10,10,11,11,12,12,13,13],"right_children":[2,4,6,8,10,12,14,16,18,20,22,24,26,28,-1,-1,-1,-1,-1,-1,-1,-1,-1,-1,-1,-1,-1,-1,-1],"split_conditions":[1E-1,1E0,2.6E0,-3.6E0,-4E0,3.812863E1,2.7E0,2.4987955E1,2.531798E0,2.0032013E1,3.3E0,-3.1E0,1E0,1.071E2,-5.2311648E-2,2.0281116E-3,4.369433E-2,-2.611255E-2,-9.789217E-3,-4.600624E-2,-2.611255E-2,-2.611255E-2,-4.756401E-2,2.262595E-2,-8.219887E-4,5.322227E-2,2.262595E-2,3.6296987E-3,-3.1153202E-2],"split_indices":[12,11,12,5,5,1,12,1,9,1,4,5,15,2,0,0,0,0,0,0,0,0,0,0,0,0,0,0,0],"split_type":[0,0,0,0,0,0,0,0,0,0,0,0,0,0,0,0,0,0,0,0,0,0,0,0,0,0,0,0,0],"sum_hessian":[5.8695415E3,1.0416729E3,4.8278687E3,1.393469E2,9.02326E2,4.2686304E3,5.592382E2,5.377231E1,8.557458E1,9.573886E1,8.0658716E2,3.0859841E3,1.1826462E3,7.5661197E0,5.516721E2,2.5630348E1,2.8141962E1,4.8182777E1,3.73918E1,4.2658634E1,5.3080223E1,8.442471E0,7.9814465E2,1.0243641E3,2.0616199E3,6.3607697E2,5.465692E2,3.7677138E0,3.7984061E0],"tree_param":{"num_deleted":"0","num_feature":"34","num_nodes":"29","size_leaf_vector":"1"}},{"base_weights":[-1.663368E-2,-7.930498E-1,1.4525819E-1,-1.04774274E-1,-9.032782E-1,2.919632E-1,-5.2173544E-2,3.294988E-1,-5.0402623E-1,-5.0402623E-1,-9.13244E-1,3.744579E-1,-2.1133628E-1,2.9994745E-2,-1.4740593E-2,-2.5201311E-2,-0E0,-2.5201311E-2,-4.0409144E-2,-2.5201311E-2,-4.604208E-2,3.3100612E-2,1.1730543E-2,-2.5768701E-2,4.0780404E-3],"categories":[],"categories_nodes":[],"categories_segments":[],"categories_sizes":[],"default_left":[0,0,0,0,0,0,0,0,0,0,0,0,0,0,0,0,0,0,0,0,0,0,0,0,0],"id":24,"left_children":[1,3,5,7,9,11,-1,13,15,17,19,21,23,-1,-1,-1,-1,-1,-1,-1,-1,-1,-1,-1,-1],"loss_changes":[7.358382E2,7.606183E1,8.4470355E2,3.709001E1,3.090332E0,1.7932727E2,0E0,1.5413208E1,1.916645E0,1.0554104E0,2.980896E0,1.4860992E2,7.230426E1,0E0,0E0,0E0,0E0,0E0,0E0,0E0,0E0,0E0,0E0,0E0,0E0],"parents":[2147483647,0,0,1,1,2,2,3,3,4,4,5,5,7,7,8,8,9,9,10,10,11,11,12,12],"right_children":[2,4,6,8,10,12,-1,14,16,18,20,22,24,-1,-1,-1,-1,-1,-1,-1,-1,-1,-1,-1,-1],"split_conditions":[1E-1,1E0,2.7E0,-2.1E0,-6.4E0,2.18E1,-5.2173544E-2,1.34E1,4.2E0,3E0,3.6E0,-2.9E0,1.1E0,2.9994745E-2,-1.4740593E-2,-2.5201311E-2,-0E0,-2.5201311E-2,-4.0409144E-2,-2.5201311E-2,-4.604208E-2,3.3100612E-2,1.1730543E-2,-2.5768701E-2,4.0780404E-3],"split_indices":[12,11,12,5,5,4,0,4,6,6,4,5,12,0,0,0,0,0,0,0,0,0,0,0,0],"split_type":[0,0,0,0,0,0,0,0,0,0,0,0,0,0,0,0,0,0,0,0,0,0,0,0,0],"sum_hessian":[5.8403936E3,1.0068654E3,4.833528E3,1.4015605E2,8.6670935E2,4.304255E3,5.29273E2,8.295734E1,5.7198727E1,2.036775E1,8.463416E2,3.6994E3,6.048551E2,5.849959E1,2.4457743E1,5.1298363E1,5.900362E0,8.754923E0,1.1612828E1,1.0605902E1,8.357357E2,1.2068417E3,2.492558E3,3.462009E2,2.586542E2],"tree_param":{"num_deleted":"0","num_feature":"34","num_nodes":"25","size_leaf_vector":"1"}},{"base_weights":[-1.0869947E-2,1.6265847E-1,-4.2534798E-1,5.409702E-1,9.010316E-3,-1.3134477E-1,-5.0293505E-1,1.5079628E0,4.7848284E-1,4.9679035E-1,-1.3134477E-1,-3.8556543E-1,-1.3134477E-1,-1.3134477E-1,-5.556439E-1,7.896411E-2,2.5852023E-2,3.471574E-2,1.8677935E-2,6.695249E-2,1.7467206E-2,1.4443331E-3,-6.5672384E-3,-2.7489332E-2,-6.5672384E-3,-6.5672384E-3,-8.054092E-3,-2.0927388E-2,-6.5672384E-3,-1.9589826E-2,-3.565546E-2],"categories":[],"categories_nodes":[],"categories_segments":[],"categories_sizes":[],"default_left":[0,0,0,0,0,0,0,0,0,0,0,0,0,0,0,0,0,0,0,0,0,0,0,0,0,0,0,0,0,0,0],"id":25,"left_children":[1,3,5,7,9,11,13,15,17,19,21,23,25,27,29,-1,-1,-1,-1,-1,-1,-1,-1,-1,-1,-1,-1,-1,-1,-1,-1],"loss_changes":[4.1947293E2,2.3861658E2,6.454132E1,7.056473E1,2.0880104E2,3.7004728E0,4.3180115E1,2.8869019E0,2.480391E1,8.310304E1,3.7957813E1,2.9941444E0,2.8591156E-2,2.8264527E0,3.616214E1,0E0,0E0,0E0,0E0,0E0,0E0,0E0,0E0,0E0,0E0,0E0,0E0,0E0,0E0,0E0,0E0],"parents":[2147483647,0,0,1,1,2,2,3,3,4,4,5,5,6,6,7,7,8,8,9,9,10,10,11,11,12,12,13,13,14,14],"right_children":[2,4,6,8,10,12,14,16,18,20,22,24,26,28,30,-1,-1,-1,-1,-1,-1,-1,-1,-1,-1,-1,-1,-1,-1,-1,-1],"split_conditions":[1.9580091E1,-3.1E0,1E0,9.9747E-1,7.5239615E0,9.13E1,-5.1E0,1E0,1.1954079E1,4.1231055E0,1E0,9.5E0,1E0,9.29E1,1E0,7.896411E-2,2.5852023E-2,3.471574E-2,1.8677935E-2,6.695249E-2,1.7467206E-2,1.4443331E-3,-6.5672384E-3,-2.7489332E-2,-6.5672384E-3,-6.5672384E-3,-8.054092E-3,-2.0927388E-2,-6.5672384E-3,-1.9589826E-2,-3.565546E-2],"split_indices":[0,5,29,7,0,2,5,15,0,0,15,3,30,2,30,0,0,0,0,0,0,0,0,0,0,0,0,0,0,0,0],"split_type":[0,0,0,0,0,0,0,0,0,0,0,0,0,0,0,0,0,0,0,0,0,0,0,0,0,0,0,0,0,0,0],"sum_hessian":[5.818418E3,4.101333E3,1.7170853E3,1.1822086E3,2.919124E3,1.7582553E2,1.5412598E3,6.846382E1,1.1137449E3,6.719073E2,2.2472168E3,5.1858215E1,1.2396732E2,1.1986083E2,1.4213989E3,6.228867E1,6.1751513E0,3.5908893E2,7.546559E2,9.718749E1,5.747198E2,1.47155E3,7.756668E2,3.4238808E1,1.7619408E1,8.824457E1,3.5722755E1,2.920247E1,9.065836E1,7.015581E2,7.198408E2],"tree_param":{"num_deleted":"0","num_feature":"34","num_nodes":"31","size_leaf_vector":"1"}},{"base_weights":[-3.0799971E-3,-7.86173E-1,1.5291607E-1,-5.0165147E-1,-9.473046E-1,2.9253313E-1,-1.0315493E0,1.292997E-1,-6.833495E-1,-3.62239E-2,-4.771196E-2,1.6316353E0,2.5636154E-1,-3.0500573E-1,-5.2036017E-2,1.7271355E-2,-2.2588352E-2,1.276446E-2,-3.5054103E-2,5.7348486E-2,8.832764E-2,9.173467E-3,3.7702292E-2,-1.9390047E-2,-0E0],"categories":[],"categories_nodes":[],"categories_segments":[],"categories_sizes":[],"default_left":[0,0,0,0,0,0,0,0,0,0,0,0,0,0,0,0,0,0,0,0,0,0,0,0,0],"id":26,"left_children":[1,3,5,7,9,11,13,15,17,-1,-1,19,21,23,-1,-1,-1,-1,-1,-1,-1,-1,-1,-1,-1],"loss_changes":[7.08602E2,4.3109314E1,7.9982166E2,4.1272537E1,5.960083E-1,2.0910654E2,2.3989258E0,1.09822235E1,5.435562E0,0E0,0E0,3.1557617E0,1.5266156E2,1.7297709E-1,0E0,0E0,0E0,0E0,0E0,0E0,0E0,0E0,0E0,0E0,0E0],"parents":[2147483647,0,0,1,1,2,2,3,3,4,4,5,5,6,6,7,7,8,8,11,11,12,12,13,13],"right_children":[2,4,6,8,10,12,14,16,18,-1,-1,20,22,24,-1,-1,-1,-1,-1,-1,-1,-1,-1,-1,-1],"split_conditions":[1E-1,1E0,2.6E0,-4E0,8.05623E-1,9.9747E-1,2.7E0,1.74E1,9.670746E-1,-3.62239E-2,-4.771196E-2,1.4317821E0,2E0,9.9E0,-5.2036017E-2,1.7271355E-2,-2.2588352E-2,1.276446E-2,-3.5054103E-2,5.7348486E-2,8.832764E-2,9.173467E-3,3.7702292E-2,-1.9390047E-2,-0E0],"split_indices":[12,8,12,5,7,7,12,4,7,0,0,9,12,3,0,0,0,0,0,0,0,0,0,0,0],"split_type":[0,0,0,0,0,0,0,0,0,0,0,0,0,0,0,0,0,0,0,0,0,0,0,0,0],"sum_hessian":[5.7864106E3,9.6039557E2,4.826015E3,3.513397E2,6.0905585E2,4.318864E3,5.0715128E2,7.806879E1,2.732709E2,5.2854238E0,6.0377045E2,1.1090827E2,4.2079556E3,7.8555536E0,4.9929575E2,5.8121918E1,1.9946867E1,4.047259E0,2.6922366E2,2.9095737E1,8.181253E1,3.6736455E3,5.343102E2,4.696136E0,3.1594176E0],"tree_param":{"num_deleted":"0","num_feature":"34","num_nodes":"25","size_leaf_vector":"1"}},{"base_weights":[3.0259555E-4,-7.752285E-1,1.505616E-1,-1.2686813E-1,-8.8533825E-1,2.832932E-1,-1.0307232E0,1.868235E-1,-5.0610316E-1,-4.8210975E-2,-7.87894E-1,-2.0547493E-1,3.9227238E-1,-3.9180988E-1,-5.1911395E-2,-1.4776121E-2,2.5071576E-2,-2.5305158E-2,5.2203625E-3,-2.7941763E-2,-4.3145534E-2,-1.8646426E-2,4.6699364E-3,9.134982E-3,3.0654958E-2,-0E0,-3.0208707E-2],"categories":[],"categories_nodes":[],"categories_segments":[],"categories_sizes":[],"default_left":[0,0,0,0,0,0,0,0,0,0,0,0,0,0,0,0,0,0,0,0,0,0,0,0,0,0,0],"id":27,"left_children":[1,3,5,7,9,11,13,15,17,-1,19,21,23,25,-1,-1,-1,-1,-1,-1,-1,-1,-1,-1,-1,-1,-1],"loss_changes":[6.7203827E2,6.622937E1,7.582445E2,2.1192038E1,4.6047363E0,2.3182245E2,1.2088623E0,1.3833563E1,2.0539665E0,0E0,5.329071E0,5.6519764E1,1.6414282E2,7.6469266E-1,0E0,0E0,0E0,0E0,0E0,0E0,0E0,0E0,0E0,0E0,0E0,0E0,0E0],"parents":[2147483647,0,0,1,1,2,2,3,3,4,4,5,5,6,6,7,7,8,8,10,10,11,11,12,12,13,13],"right_children":[2,4,6,8,10,12,14,16,18,-1,20,22,24,26,-1,-1,-1,-1,-1,-1,-1,-1,-1,-1,-1,-1,-1],"split_conditions":[1E-1,1E0,2.6E0,-2.1E0,2.0893621E1,1.5910199E1,2.7E0,2.2230267E1,7.6802155E1,-4.8210975E-2,1E0,5E0,2.0124612E0,1.071E2,-5.1911395E-2,-1.4776121E-2,2.5071576E-2,-2.5305158E-2,5.2203625E-3,-2.7941763E-2,-4.3145534E-2,-1.8646426E-2,4.6699364E-3,9.134982E-3,3.0654958E-2,-0E0,-3.0208707E-2],"split_indices":[12,11,12,5,1,1,12,1,1,0,8,9,9,2,0,0,0,0,0,0,0,0,0,0,0,0,0],"split_type":[0,0,0,0,0,0,0,0,0,0,0,0,0,0,0,0,0,0,0,0,0,0,0,0,0,0,0],"sum_hessian":[5.7577915E3,9.326197E2,4.825172E3,1.3667575E2,7.95944E2,4.3395186E3,4.8565353E2,8.25082E1,5.4167545E1,4.2720212E2,3.6874185E2,7.900064E2,3.549512E3,7.6472235E0,4.7800632E2,3.1991701E1,5.0516502E1,5.092038E1,3.247163E0,9.6783485E1,2.7195837E2,5.825463E2,2.0746011E2,1.8241989E3,1.7253131E3,4.0768824E0,3.570341E0],"tree_param":{"num_deleted":"0","num_feature":"34","num_nodes":"27","size_leaf_vector":"1"}},{"base_weights":[-5.8478625E-3,-4.0772164E-1,1.5151168E-1,-2.428729E-1,-5.89789E-1,2.987092E-1,-1.2810498E-1,-3.425451E-1,-1.2810498E-1,-7.140862E-1,-1.2810498E-1,6.691046E-2,6.2900746E-1,6.952904E-1,-1.2810498E-1,-1.1766252E-2,-2.9741948E-2,-6.4052492E-3,-1.1766252E-2,-3.1995006E-2,-4.410633E-2,-3.395049E-2,-6.4052492E-3,1.7397948E-2,-5.302899E-3,1.9030526E-2,4.3179538E-2,4.7643293E-2,1.4179635E-2,1.4179635E-2,-6.4052492E-3],"categories":[],"categories_nodes":[],"categories_segments":[],"categories_sizes":[],"default_left":[0,0,0,0,0,0,0,0,0,0,0,0,0,0,0,0,0,0,0,0,0,0,0,0,0,0,0,0,0,0,0],"id":28,"left_children":[1,3,5,7,9,11,13,15,17,19,21,23,25,27,29,-1,-1,-1,-1,-1,-1,-1,-1,-1,-1,-1,-1,-1,-1,-1,-1],"loss_changes":[3.6340213E2,4.8189026E1,2.1555774E2,2.1707134E1,4.944998E1,2.2592578E2,9.409967E1,2.0023315E1,4.347067E-1,6.626068E0,7.3713617E0,9.181728E1,7.0188354E1,1.5663322E1,7.9838257E0,0E0,0E0,0E0,0E0,0E0,0E0,0E0,0E0,0E0,0E0,0E0,0E0,0E0,0E0,0E0,0E0],"parents":[2147483647,0,0,1,1,2,2,3,3,4,4,5,5,6,6,7,7,8,8,9,9,10,10,11,11,12,12,13,13,14,14],"right_children":[2,4,6,8,10,12,14,16,18,20,22,24,26,28,30,-1,-1,-1,-1,-1,-1,-1,-1,-1,-1,-1,-1,-1,-1,-1,-1],"split_conditions":[1.768894E1,1E0,1E0,7.340981E0,3.8E0,2.96864E1,5.8309517E0,2.8267649E1,1E0,2.880625E1,1.2727922E0,-3.7E0,1E0,1E0,-5.7E0,-1.1766252E-2,-2.9741948E-2,-6.4052492E-3,-1.1766252E-2,-3.1995006E-2,-4.410633E-2,-3.395049E-2,-6.4052492E-3,1.7397948E-2,-5.302899E-3,1.9030526E-2,4.3179538E-2,4.7643293E-2,1.4179635E-2,1.4179635E-2,-6.4052492E-3],"split_indices":[1,30,15,9,6,1,0,0,21,0,9,5,23,13,5,0,0,0,0,0,0,0,0,0,0,0,0,0,0,0,0],"split_type":[0,0,0,0,0,0,0,0,0,0,0,0,0,0,0,0,0,0,0,0,0,0,0,0,0,0,0,0,0,0,0],"sum_hessian":[5.731787E3,1.6128342E3,4.1189526E3,8.503333E2,7.62501E2,2.9493147E3,1.1696382E3,7.1273865E2,1.3759462E2,6.163155E2,1.4618546E2,1.7353729E3,1.2139418E3,1.356281E2,1.0340101E3,4.9734262E2,2.1539606E2,1.3032405E2,7.2705703E0,4.362933E2,1.800222E2,2.0581116E1,1.2560433E2,6.285829E2,1.10679E3,5.931938E2,6.20748E2,8.483094E1,5.079716E1,1.9211735E1,1.01479834E3],"tree_param":{"num_deleted":"0","num_feature":"34","num_nodes":"31","size_leaf_vector":"1"}},{"base_weights":[-2.4859146E-3,-7.560183E-1,1.3642079E-1,-7.636858E-2,-8.8229877E-1,2.580237E-1,-1.0256579E0,1.1068391E-1,-2.3966683E-2,-7.3188245E-1,-9.341111E-1,1.2678443E-1,5.6925046E-1,-2.7002013E-1,-5.179101E-2,-2.3966683E-2,1.7529365E-2,-4.164984E-2,-2.6527513E-2,-4.8728652E-2,-4.182214E-2,1.03680035E-2,-2.5071949E-2,4.1787937E-2,1.7400874E-2,2.5769393E-3,-3.0083826E-2],"categories":[],"categories_nodes":[],"categories_segments":[],"categories_sizes":[],"default_left":[0,0,0,0,0,0,0,0,0,0,0,0,0,0,0,0,0,0,0,0,0,0,0,0,0,0,0],"id":29,"left_children":[1,3,5,7,9,11,13,15,-1,17,19,21,23,25,-1,-1,-1,-1,-1,-1,-1,-1,-1,-1,-1,-1,-1],"loss_changes":[6.031124E2,7.6456665E1,6.8735565E2,1.865241E1,4.463257E0,1.7954285E2,2.5995789E0,1.967329E1,0E0,4.887825E0,5.2041626E-1,1.5738786E2,1.04663666E2,1.7293055E0,0E0,0E0,0E0,0E0,0E0,0E0,0E0,0E0,0E0,0E0,0E0,0E0,0E0],"parents":[2147483647,0,0,1,1,2,2,3,3,4,4,5,5,6,6,7,7,9,9,10,10,11,11,12,12,13,13],"right_children":[2,4,6,8,10,12,14,16,-1,18,20,22,24,26,-1,-1,-1,-1,-1,-1,-1,-1,-1,-1,-1,-1,-1],"split_conditions":[1E-1,1E0,2.6E0,1E0,1E0,3.6905224E1,2.7E0,1.7391258E1,-2.3966683E-2,2.1146482E1,2.5773783E1,1E0,1E0,1.071E2,-5.179101E-2,-2.3966683E-2,1.7529365E-2,-4.164984E-2,-2.6527513E-2,-4.8728652E-2,-4.182214E-2,1.03680035E-2,-2.5071949E-2,4.1787937E-2,1.7400874E-2,2.5769393E-3,-3.0083826E-2],"split_indices":[12,11,12,15,8,1,12,1,0,1,1,15,15,2,0,0,0,0,0,0,0,0,0,0,0,0,0],"split_type":[0,0,0,0,0,0,0,0,0,0,0,0,0,0,0,0,0,0,0,0,0,0,0,0,0,0,0],"sum_hessian":[5.746567E3,8.9362115E2,4.852946E3,1.4114401E2,7.524771E2,4.395025E3,4.5792062E2,1.1681738E2,2.4326624E1,2.0301277E2,5.4946436E2,3.0945322E3,1.3004928E3,7.461322E0,4.5045932E2,2.9882305E1,8.693508E1,1.11292145E2,9.1720634E1,3.721956E2,1.7726877E2,2.7446414E3,3.4989066E2,7.058376E2,5.946552E2,3.8805435E0,3.5807784E0],"tree_param":{"num_deleted":"0","num_feature":"34","num_nodes":"27","size_leaf_vector":"1"}},{"base_weights":[-7.561205E-3,-7.558425E-1,1.2558143E-1,-1.3110368E-1,-8.7272304E-1,2.4084471E-1,-1.0251757E0,2.522313E-1,-5.0191337E-1,-6.174524E-1,-9.023736E-1,-2.0845942E-1,3.262631E-1,-4.0843204E-1,-5.1671334E-2,-2.043612E-2,2.090979E-2,-0E0,-2.509567E-2,-4.265281E-2,-2.509567E-2,-4.5441028E-2,-2.509567E-2,-1.625411E-2,2.945092E-3,2.945092E-3,2.2364346E-2,-0E0,-2.7358366E-2],"categories":[],"categories_nodes":[],"categories_segments":[],"categories_sizes":[],"default_left":[0,0,0,0,0,0,0,0,0,0,0,0,0,0,0,0,0,0,0,0,0,0,0,0,0,0,0,0,0],"id":30,"left_children":[1,3,5,7,9,11,13,15,17,19,21,23,25,27,-1,-1,-1,-1,-1,-1,-1,-1,-1,-1,-1,-1,-1,-1,-1],"loss_changes":[5.6879144E2,6.2398193E1,6.4270966E2,2.9173647E1,4.2559204E0,1.6927374E2,1.0921326E0,1.0107964E1,1.0177422E0,3.0538712E0,1.8716431E0,4.027691E1,1.4592014E2,5.5430484E-1,0E0,0E0,0E0,0E0,0E0,0E0,0E0,0E0,0E0,0E0,0E0,0E0,0E0,0E0,0E0],"parents":[2147483647,0,0,1,1,2,2,3,3,4,4,5,5,6,6,7,7,8,8,9,9,10,10,11,11,12,12,13,13],"right_children":[2,4,6,8,10,12,14,16,18,20,22,24,26,28,-1,-1,-1,-1,-1,-1,-1,-1,-1,-1,-1,-1,-1,-1,-1],"split_conditions":[1E-1,1E0,2.6E0,-2.2E0,-4E0,1.5407253E1,2.7E0,1.7391258E1,5E0,2.0032013E1,5.2E0,8.041144E0,1.2806249E0,-2.2E0,-5.1671334E-2,-2.043612E-2,2.090979E-2,-0E0,-2.509567E-2,-4.265281E-2,-2.509567E-2,-4.5441028E-2,-2.509567E-2,-1.625411E-2,2.945092E-3,2.945092E-3,2.2364346E-2,-0E0,-2.7358366E-2],"split_indices":[12,11,12,5,5,1,12,1,0,1,6,9,9,5,0,0,0,0,0,0,0,0,0,0,0,0,0,0,0],"split_type":[0,0,0,0,0,0,0,0,0,0,0,0,0,0,0,0,0,0,0,0,0,0,0,0,0,0,0,0,0],"sum_hessian":[5.6933037E3,8.591508E2,4.834153E3,1.3674667E2,7.224041E2,4.3958657E3,4.3828717E2,8.174769E1,5.499899E1,8.147481E1,6.409293E2,7.008151E2,3.6950508E3,7.919492E0,4.3036768E2,1.5215167E1,6.6532524E1,4.201026E0,5.0797962E1,3.3980404E1,4.7494404E1,6.3502625E2,5.9030957E0,6.111552E2,8.965992E1,9.784696E2,2.716581E3,3.0044549E0,4.9150367E0],"tree_param":{"num_deleted":"0","num_feature":"34","num_nodes":"29","size_leaf_vector":"1"}},{"base_weights":[-2.065939E-3,-7.43909E-1,1.24909766E-1,-2.3718135E-1,-8.3443147E-1,2.3488168E-1,-1.0250545E0,-7.1149313E-1,-1.6827274E-2,-8.5679543E-1,-3.535609E-1,1.7090803E-1,6.742682E-1,-4.7225973E-1,-5.1565822E-2,-2.0378327E-2,-4.4038262E-2,-3.3353087E-2,7.53939E-3,-4.3265164E-2,4.6854527E-3,-2.4718134E-2,7.251968E-3,3.257929E-2,5.085384E-3,3.9963737E-2,-3.4244116E-3,-4.1661146E-3,-3.0283576E-2],"categories":[],"categories_nodes":[],"categories_segments":[],"categories_sizes":[],"default_left":[0,0,0,0,0,0,0,0,0,0,0,0,0,0,0,0,0,0,0,0,0,0,0,0,0,0,0,0,0],"id":31,"left_children":[1,3,5,7,9,11,13,15,17,19,21,23,25,27,-1,-1,-1,-1,-1,-1,-1,-1,-1,-1,-1,-1,-1,-1,-1],"loss_changes":[5.362148E2,3.7500458E1,6.144922E2,1.3641772E1,6.726715E0,1.2442827E2,2.1774292E-1,1.2891483E0,1.1201751E1,6.064453E0,3.106503E0,1.2876865E2,5.2767365E1,2.551465E-1,0E0,0E0,0E0,0E0,0E0,0E0,0E0,0E0,0E0,0E0,0E0,0E0,0E0,0E0,0E0],"parents":[2147483647,0,0,1,1,2,2,3,3,4,4,5,5,6,6,7,7,8,8,9,9,10,10,11,11,12,12,13,13],"right_children":[2,4,6,8,10,12,14,16,18,20,22,24,26,28,-1,-1,-1,-1,-1,-1,-1,-1,-1,-1,-1,-1,-1,-1,-1],"split_conditions":[1E-1,-4E0,2.6E0,1.027E2,4.2E0,2E0,2.7E0,-5.1E0,1E0,1.176E2,3.6878178E0,-5.6E0,1E0,-1.9E0,-5.1565822E-2,-2.0378327E-2,-4.4038262E-2,-3.3353087E-2,7.53939E-3,-4.3265164E-2,4.6854527E-3,-2.4718134E-2,7.251968E-3,3.257929E-2,5.085384E-3,3.9963737E-2,-3.4244116E-3,-4.1661146E-3,-3.0283576E-2],"split_indices":[12,5,12,2,6,12,12,5,23,2,9,5,13,5,0,0,0,0,0,0,0,0,0,0,0,0,0,0,0],"split_type":[0,0,0,0,0,0,0,0,0,0,0,0,0,0,0,0,0,0,0,0,0,0,0,0,0,0,0,0,0],"sum_hessian":[5.6760796E3,8.287002E2,4.8473794E3,1.2753682E2,7.011634E2,4.4261313E3,4.2124786E2,3.8321995E1,8.921483E1,6.675158E2,3.364759E1,3.8670186E3,5.591129E2,7.3245707E0,4.139233E2,1.7203182E1,2.1118813E1,1.7674225E1,7.1540596E1,6.62293E2,5.2228074E0,2.7033339E1,6.6142507E0,4.8362396E2,3.3833945E3,4.7901526E2,8.009768E1,3.6578064E0,3.666764E0],"tree_param":{"num_deleted":"0","num_feature":"34","num_nodes":"29","size_leaf_vector":"1"}},{"base_weights":[-6.644687E-4,9.835812E-2,-3.8417998E-1,3.959949E-1,-3.3135038E-2,-1.996775E-1,-6.018701E-1,1.3823452E0,3.4418353E-1,2.4593593E-1,-1.4291093E-1,-1.4291093E-1,-5.0894624E-1,-1.4291093E-1,-6.613829E-1,3.4642562E-2,7.213963E-2,1.3710913E-2,3.1444006E-2,2.354852E-2,2.5756252E-3,-7.1455464E-3,2.5756252E-3,-1.5763517E-2,-7.1455464E-3,-3.2977782E-2,-1.629643E-2,-7.1455464E-3,-3.6008857E-2,-3.4924258E-2,-1.5658805E-2],"categories":[],"categories_nodes":[],"categories_segments":[],"categories_sizes":[],"default_left":[0,0,0,0,0,0,0,0,0,0,0,0,0,0,0,0,0,0,0,0,0,0,0,0,0,0,0,0,0,0,0],"id":32,"left_children":[1,3,5,7,9,11,13,15,17,19,21,23,25,27,29,-1,-1,-1,-1,-1,-1,-1,-1,-1,-1,-1,-1,-1,-1,-1,-1],"loss_changes":[2.153104E2,1.76342E2,4.6411774E1,6.992421E1,1.3220341E2,2.3782566E1,2.0675552E1,5.0424194E-1,2.5898575E1,6.892651E1,2.6189835E1,6.9667215E0,1.1514404E1,3.0691297E0,5.7695007E0,0E0,0E0,0E0,0E0,0E0,0E0,0E0,0E0,0E0,0E0,0E0,0E0,0E0,0E0,0E0,0E0],"parents":[2147483647,0,0,1,1,2,2,3,3,4,4,5,5,6,6,7,7,8,8,9,9,10,10,11,11,12,12,13,13,14,14],"right_children":[2,4,6,8,10,12,14,16,18,20,22,24,26,28,30,-1,-1,-1,-1,-1,-1,-1,-1,-1,-1,-1,-1,-1,-1,-1,-1],"split_conditions":[1.95E1,-3E0,1E0,9.588504E-1,7.3E0,2.79E1,-5.2E0,7E-1,4.004997E0,4.9E0,2.5079873E0,3.4655447E0,9.7E0,3.15E1,7.800641E0,3.4642562E-2,7.213963E-2,1.3710913E-2,3.1444006E-2,2.354852E-2,2.5756252E-3,-7.1455464E-3,2.5756252E-3,-1.5763517E-2,-7.1455464E-3,-3.2977782E-2,-1.629643E-2,-7.1455464E-3,-3.6008857E-2,-3.4924258E-2,-1.5658805E-2],"split_indices":[4,5,30,7,4,4,5,3,9,3,9,9,9,4,9,0,0,0,0,0,0,0,0,0,0,0,0,0,0,0,0],"split_type":[0,0,0,0,0,0,0,0,0,0,0,0,0,0,0,0,0,0,0,0,0,0,0,0,0,0,0,0,0,0,0],"sum_hessian":[5.649098E3,4.4899814E3,1.1591168E3,1.3757438E3,3.1142375E3,6.307004E2,5.284164E2,6.5614174E1,1.3101295E3,1.117686E3,1.9965516E3,4.4198065E2,1.8871976E2,3.7934216E1,4.9048215E2,7.9643626E0,5.7649807E1,1.0562377E3,2.5389185E2,6.29058E2,4.8862805E2,1.3183292E3,6.782224E2,2.2808171E2,2.1389894E2,1.5939609E2,2.932368E1,3.233387E1,5.6003428E0,4.4013675E2,5.034541E1],"tree_param":{"num_deleted":"0","num_feature":"34","num_nodes":"31","size_leaf_vector":"1"}},{"base_weights":[1.9953706E-5,-3.059547E-1,1.4840716E-1,-4.6019727E-1,-1.5573016E-1,3.03413E-1,-7.877377E-2,-5.382585E-1,-3.0796373E-1,-3.0796373E-1,-7.877377E-2,9.877169E-2,5.3117716E-1,-7.877377E-2,5.5582213E-1,-3.5121966E-2,-2.1155557E-2,-2.1155557E-2,-1.5398187E-2,-9.668438E-3,-1.5398187E-2,-9.668438E-3,-3.9386884E-3,1.5748722E-2,-6.8905595E-4,6.1916288E-2,2.3678599E-2,-3.9386884E-3,1.0476077E-2,1.1479914E-3,3.6225405E-2],"categories":[],"categories_nodes":[],"categories_segments":[],"categories_sizes":[],"default_left":[0,0,0,0,0,0,0,0,0,0,0,0,0,0,0,0,0,0,0,0,0,0,0,0,0,0,0,0,0,0,0],"id":33,"left_children":[1,3,5,7,9,11,13,15,17,19,21,23,25,27,29,-1,-1,-1,-1,-1,-1,-1,-1,-1,-1,-1,-1,-1,-1,-1,-1],"loss_changes":[2.5670792E2,4.2556107E1,1.9174649E2,2.0012253E1,1.8541178E1,1.2368036E2,6.180371E1,1.4555634E1,7.309742E-1,3.7633438E0,7.96846E0,4.5615112E1,5.028076E1,1.0119232E1,1.3440514E1,0E0,0E0,0E0,0E0,0E0,0E0,0E0,0E0,0E0,0E0,0E0,0E0,0E0,0E0,0E0,0E0],"parents":[2147483647,0,0,1,1,2,2,3,3,4,4,5,5,6,6,7,7,8,8,9,9,10,10,11,11,12,12,13,13,14,14],"right_children":[2,4,6,8,10,12,14,16,18,20,22,24,26,28,30,-1,-1,-1,-1,-1,-1,-1,-1,-1,-1,-1,-1,-1,-1,-1,-1],"split_conditions":[1.9176088E1,1.4924469E1,1E0,7.800641E0,1.9235384E0,2.9426563E1,1.153E2,9.6E1,5.8E0,-4.4E0,1E0,-4.9E0,9.670746E-1,5.7943836E1,4.25601E1,-3.5121966E-2,-2.1155557E-2,-2.1155557E-2,-1.5398187E-2,-9.668438E-3,-1.5398187E-2,-9.668438E-3,-3.9386884E-3,1.5748722E-2,-6.8905595E-4,6.1916288E-2,2.3678599E-2,-3.9386884E-3,1.0476077E-2,1.1479914E-3,3.6225405E-2],"split_indices":[1,1,15,9,9,1,2,2,3,5,23,5,7,1,1,0,0,0,0,0,0,0,0,0,0,0,0,0,0,0,0],"split_type":[0,0,0,0,0,0,0,0,0,0,0,0,0,0,0,0,0,0,0,0,0,0,0,0,0,0,0,0,0,0,0],"sum_hessian":[5.6417485E3,1.8407096E3,3.8010393E3,9.0453046E2,9.361791E2,2.6535205E3,1.1475188E3,7.735672E2,1.3096327E2,2.679959E2,6.6818317E2,1.4003751E3,1.2531453E3,9.97595E2,1.4992378E2,3.1883228E2,4.5473492E2,2.3993927E1,1.0696935E2,4.5488003E1,2.2250792E2,1.3831204E2,5.2987115E2,3.7701938E2,1.0233558E3,9.065173E1,1.1624935E3,8.8116327E2,1.1643166E2,3.730794E1,1.12615845E2],"tree_param":{"num_deleted":"0","num_feature":"34","num_nodes":"31","size_leaf_vector":"1"}},{"base_weights":[-1.5187601E-2,-7.26562E-1,1.019036E-1,-6.0154366E-1,-4.6140797E-2,2.0078711E-1,-5.146494E-2,-4.7393918E-1,-3.810899E-2,1.3618346E0,1.7192481E-1,-3.810899E-2,-1.3825788E-2,2.797143E-2,7.149426E-2,5.1184767E-3,2.7817888E-2],"categories":[],"categories_nodes":[],"categories_segments":[],"categories_sizes":[],"default_left":[0,0,0,0,0,0,0,0,0,0,0,0,0,0,0,0,0],"id":34,"left_children":[1,3,5,7,-1,9,-1,11,-1,13,15,-1,-1,-1,-1,-1,-1],"loss_changes":[4.7093192E2,1.8498718E1,5.4281696E2,1.731752E1,0E0,1.4940305E2,0E0,2.5997162E1,0E0,3.8954468E0,1.163627E2,0E0,0E0,0E0,0E0,0E0,0E0],"parents":[2147483647,0,0,1,1,2,2,3,3,5,5,7,7,9,9,10,10],"right_children":[2,4,6,8,-1,10,-1,12,-1,14,16,-1,-1,-1,-1,-1,-1],"split_conditions":[1E-1,1.9366207E1,2.7E0,1E0,-4.6140797E-2,9.958624E-1,-5.146494E-2,1E0,-3.810899E-2,2.803721E-2,1.9E0,-3.810899E-2,-1.3825788E-2,2.797143E-2,7.149426E-2,5.1184767E-3,2.7817888E-2],"split_indices":[12,0,12,15,0,7,0,23,0,7,12,0,0,0,0,0,0],"split_type":[0,0,0,0,0,0,0,0,0,0,0,0,0,0,0,0,0],"sum_hessian":[5.636446E3,7.9575934E2,4.8406865E3,4.926241E2,3.0313522E2,4.453475E3,3.8721136E2,3.7557837E2,1.17045746E2,1.05362274E2,4.348113E3,1.2859908E2,2.469793E2,1.0253141E1,9.510913E1,3.685187E3,6.6292596E2],"tree_param":{"num_deleted":"0","num_feature":"34","num_nodes":"17","size_leaf_vector":"1"}},{"base_weights":[-1.4522607E-2,-7.198036E-1,9.808411E-2,-9.725117E-2,-8.4735906E-1,1.9269449E-1,-1.0150745E0,2.2234775E-1,-4.7230512E-1,-6.6601056E-1,-9.114506E-1,1.3338859E0,1.6577618E-1,-3.0363983E-1,-5.1358547E-2,1.7314097E-2,-2.3615256E-2,6.912496E-3,-2.3615256E-2,-2.5182312E-2,-3.943653E-2,-4.2579077E-2,-4.8735708E-2,6.756177E-2,1.9208612E-2,5.1725074E-3,2.881948E-2,-3.2712143E-2,5.4139504E-3],"categories":[],"categories_nodes":[],"categories_segments":[],"categories_sizes":[],"default_left":[0,0,0,0,0,0,0,0,0,0,0,0,0,0,0,0,0,0,0,0,0,0,0,0,0,0,0,0,0],"id":35,"left_children":[1,3,5,7,9,11,13,15,17,19,21,23,25,27,-1,-1,-1,-1,-1,-1,-1,-1,-1,-1,-1,-1,-1,-1,-1],"loss_changes":[4.474115E2,6.1074707E1,5.113922E2,2.2376001E1,6.185852E0,1.3736574E2,2.2922058E0,1.0827281E1,2.3553257E0,4.509842E0,1.09069824E-1,1.8031311E-1,1.1183279E2,2.2996292E0,0E0,0E0,0E0,0E0,0E0,0E0,0E0,0E0,0E0,0E0,0E0,0E0,0E0,0E0,0E0],"parents":[2147483647,0,0,1,1,2,2,3,3,4,4,5,5,6,6,7,7,8,8,9,9,10,10,11,11,12,12,13,13],"right_children":[2,4,6,8,10,12,14,16,18,20,22,24,26,28,-1,-1,-1,-1,-1,-1,-1,-1,-1,-1,-1,-1,-1,-1,-1],"split_conditions":[1E-1,1E0,2.6E0,-2.1E0,1E0,9.9747E-1,2.7E0,1E0,5E0,9.6E0,1.9366207E1,1.64E1,2E0,1E0,-5.1358547E-2,1.7314097E-2,-2.3615256E-2,6.912496E-3,-2.3615256E-2,-2.5182312E-2,-3.943653E-2,-4.2579077E-2,-4.8735708E-2,6.756177E-2,1.9208612E-2,5.1725074E-3,2.881948E-2,-3.2712143E-2,5.4139504E-3],"split_indices":[12,11,12,5,8,7,12,15,0,3,0,4,12,18,0,0,0,0,0,0,0,0,0,0,0,0,0,0,0],"split_type":[0,0,0,0,0,0,0,0,0,0,0,0,0,0,0,0,0,0,0,0,0,0,0,0,0,0,0,0,0],"sum_hessian":[5.6157236E3,7.7229895E2,4.843425E3,1.3259505E2,6.397039E2,4.465954E3,3.7747064E2,8.2314445E1,5.0280598E1,1.7503181E2,4.646721E2,1.0024913E2,4.365705E3,7.8745584E0,3.6959607E2,7.53556E1,6.958846E0,3.8772714E0,4.6403328E1,1.0360119E2,7.143062E1,2.5766107E2,2.07011E2,9.710321E1,3.1459224E0,3.7936042E3,5.7210065E2,4.274016E0,3.6005425E0],"tree_param":{"num_deleted":"0","num_feature":"34","num_nodes":"29","size_leaf_vector":"1"}},{"base_weights":[-1.4745678E-2,-7.035461E-1,9.208088E-2,-8.157787E-2,-8.360312E-1,1.803027E-1,-5.1261164E-2,2.0345989E-1,-4.5880455E-1,-8.4577304E-1,-2.2940228E-2,1.2114764E0,1.5570422E-1,3.2896753E-2,-4.622265E-3,-2.2940228E-2,-0E0,-2.7048377E-2,-4.3435384E-2,6.519925E-2,1.3933535E-2,-1.8751113E-2,9.725186E-3],"categories":[],"categories_nodes":[],"categories_segments":[],"categories_sizes":[],"default_left":[0,0,0,0,0,0,0,0,0,0,0,0,0,0,0,0,0,0,0,0,0,0,0],"id":36,"left_children":[1,3,5,7,9,11,-1,13,15,17,-1,19,21,-1,-1,-1,-1,-1,-1,-1,-1,-1,-1],"loss_changes":[4.1343893E2,6.167148E1,4.7924207E2,1.943965E1,2.8160095E0,1.1422574E2,0E0,1.2617714E1,1.3794422E0,3.1881714E0,0E0,7.830658E0,9.099612E1,0E0,0E0,0E0,0E0,0E0,0E0,0E0,0E0,0E0,0E0],"parents":[2147483647,0,0,1,1,2,2,3,3,4,4,5,5,7,7,8,8,9,9,11,11,12,12],"right_children":[2,4,6,8,10,12,-1,14,16,18,-1,20,22,-1,-1,-1,-1,-1,-1,-1,-1,-1,-1],"split_conditions":[1E-1,1E0,2.7E0,-2.1E0,1.164E2,9.9747E-1,-5.1261164E-2,4.8E0,4.2E0,-4.7E0,-2.2940228E-2,-3E-1,9.42E1,3.2896753E-2,-4.622265E-3,-2.2940228E-2,-0E0,-2.7048377E-2,-4.3435384E-2,6.519925E-2,1.3933535E-2,-1.8751113E-2,9.725186E-3],"split_indices":[12,11,12,5,2,7,0,3,6,5,0,5,2,0,0,0,0,0,0,0,0,0,0],"split_type":[0,0,0,0,0,0,0,0,0,0,0,0,0,0,0,0,0,0,0,0,0,0,0],"sum_hessian":[5.6002085E3,7.510525E2,4.8491562E3,1.3311812E2,6.179344E2,4.4962583E3,3.528977E2,8.475095E1,4.836716E1,6.0866565E2,9.268713E0,1.0203657E2,4.394222E3,3.312212E1,5.162883E1,4.3269688E1,5.0974708E0,4.755997E1,5.6110565E2,9.161868E1,1.0417883E1,2.9730203E2,4.09692E3],"tree_param":{"num_deleted":"0","num_feature":"34","num_nodes":"23","size_leaf_vector":"1"}},{"base_weights":[-1.6834194E-2,-3.4675187E-1,8.706241E-2,-4.477641E-1,-1.2984473E-1,-1.0197278E-1,2.4301128E-1,-3.5764325E-1,-7.096393E-1,-2.888044E-1,-1.2984473E-1,-1.2984473E-1,7.051925E-2,5.0641924E-1,7.051925E-2,-1.4440221E-2,-2.4499802E-2,-2.6682064E-2,-3.9692633E-2,-6.492236E-3,-1.4440221E-2,-6.492236E-3,-1.4440221E-2,-1.4831368E-3,-6.492236E-3,3.5259628E-3,-1.4831368E-3,5.9110727E-2,2.2815498E-2,1.4423463E-2,3.5259628E-3],"categories":[],"categories_nodes":[],"categories_segments":[],"categories_sizes":[],"default_left":[0,0,0,0,0,0,0,0,0,0,0,0,0,0,0,0,0,0,0,0,0,0,0,0,0,0,0,0,0,0,0],"id":37,"left_children":[1,3,5,7,9,11,13,15,17,19,21,23,25,27,29,-1,-1,-1,-1,-1,-1,-1,-1,-1,-1,-1,-1,-1,-1,-1,-1],"loss_changes":[1.9177118E2,3.949524E1,1.2542446E2,2.3475143E1,7.8754206E0,4.1497032E1,1.1149254E2,1.1053452E1,5.5420685E0,1.9653625E0,1.4813337E0,1.977081E1,2.8200254E0,3.1394943E1,2.6060734E1,0E0,0E0,0E0,0E0,0E0,0E0,0E0,0E0,0E0,0E0,0E0,0E0,0E0,0E0,0E0,0E0],"parents":[2147483647,0,0,1,1,2,2,3,3,4,4,5,5,6,6,7,7,8,8,9,9,10,10,11,11,12,12,13,13,14,14],"right_children":[2,4,6,8,10,12,14,16,18,20,22,24,26,28,30,-1,-1,-1,-1,-1,-1,-1,-1,-1,-1,-1,-1,-1,-1,-1,-1],"split_conditions":[1.7114494E1,5.108816E0,1.7720045E0,2.8411617E1,9.11E1,5.1440777E1,1.1954079E1,-1.9E0,-3.6E0,-8.5E0,1E0,-3.9E0,2E0,9.9276537E-1,-5.1E0,-1.4440221E-2,-2.4499802E-2,-2.6682064E-2,-3.9692633E-2,-6.492236E-3,-1.4440221E-2,-6.492236E-3,-1.4440221E-2,-1.4831368E-3,-6.492236E-3,3.5259628E-3,-1.4831368E-3,5.9110727E-2,2.2815498E-2,1.4423463E-2,3.5259628E-3],"split_indices":[1,9,9,0,2,1,0,5,5,5,21,5,8,7,5,0,0,0,0,0,0,0,0,0,0,0,0,0,0,0,0],"split_type":[0,0,0,0,0,0,0,0,0,0,0,0,0,0,0,0,0,0,0,0,0,0,0,0,0,0,0,0,0,0,0],"sum_hessian":[5.57498E3,1.335216E3,4.239764E3,1.0105604E3,3.2465558E2,1.9154344E3,2.3243296E3,7.5676904E2,2.5379134E2,9.7748985E1,2.269066E2,1.5106484E3,4.0478604E2,9.477218E2,1.3766077E3,3.9601547E2,3.607536E2,4.9756615E1,2.0403473E2,3.0366933E0,9.4712296E1,2.036946E2,2.3212E1,3.4455176E2,1.1660967E3,3.628752E2,4.191083E1,6.1613434E1,8.861084E2,3.0352982E2,1.0730779E3],"tree_param":{"num_deleted":"0","num_feature":"34","num_nodes":"31","size_leaf_vector":"1"}},{"base_weights":[-1.3223563E-2,-3.8236693E-1,7.26292E-2,-4.6570173E-1,-1.5486887E-1,1.8216717E-1,-1.5486887E-1,-3.6101058E-1,-6.546106E-1,-1.5514265E-2,-7.743444E-3,5.33764E-2,5.2632016E-1,5.2921337E-1,-1.5486887E-1,-2.5287101E-2,-1.5514265E-2,-2.539053E-2,-3.533495E-2,1.4492414E-2,-2.6393076E-3,1.4492414E-2,3.3575114E-2,3.575587E-2,9.358613E-3,9.358613E-3,-7.743444E-3],"categories":[],"categories_nodes":[],"categories_segments":[],"categories_sizes":[],"default_left":[0,0,0,0,0,0,0,0,0,0,0,0,0,0,0,0,0,0,0,0,0,0,0,0,0,0,0],"id":38,"left_children":[1,3,5,7,9,11,13,15,17,-1,-1,19,21,23,25,-1,-1,-1,-1,-1,-1,-1,-1,-1,-1,-1,-1],"loss_changes":[1.7690266E2,3.3840942E1,1.4773997E2,1.7621399E1,1.9072638E0,1.4880551E2,6.716672E1,5.5147934E0,3.6490784E0,0E0,0E0,8.139559E1,3.371161E1,9.637199E0,6.631836E0,0E0,0E0,0E0,0E0,0E0,0E0,0E0,0E0,0E0,0E0,0E0,0E0],"parents":[2147483647,0,0,1,1,2,2,3,3,4,4,5,5,6,6,7,7,8,8,11,11,12,12,13,13,14,14],"right_children":[2,4,6,8,10,12,14,16,18,-1,-1,20,22,24,26,-1,-1,-1,-1,-1,-1,-1,-1,-1,-1,-1,-1],"split_conditions":[1.5910199E1,8.041144E0,1E0,2.8411617E1,2.9E0,3.4609756E1,5.8309517E0,1.9235384E0,-4.2E0,-1.5514265E-2,-7.743444E-3,-4.8E0,1.5264337E0,4E0,-5.7E0,-2.5287101E-2,-1.5514265E-2,-2.539053E-2,-3.533495E-2,1.4492414E-2,-2.6393076E-3,1.4492414E-2,3.3575114E-2,3.575587E-2,9.358613E-3,9.358613E-3,-7.743444E-3],"split_indices":[1,9,15,0,3,1,0,9,5,0,0,5,9,10,5,0,0,0,0,0,0,0,0,0,0,0,0],"split_type":[0,0,0,0,0,0,0,0,0,0,0,0,0,0,0,0,0,0,0,0,0,0,0,0,0,0,0],"sum_hessian":[5.559359E3,1.0487854E3,4.5105737E3,9.10772E2,1.3801341E2,3.3540815E3,1.1564922E3,5.914602E2,3.193118E2,1.4123943E1,1.2388947E2,2.4434453E3,9.1063617E2,1.4016899E2,1.01632324E3,1.8357602E2,4.078842E2,4.2291626E1,2.7702017E2,5.908091E2,1.8526361E3,3.306767E2,5.799595E2,9.183415E1,4.8334835E1,2.0794842E1,9.955284E2],"tree_param":{"num_deleted":"0","num_feature":"34","num_nodes":"27","size_leaf_vector":"1"}},{"base_weights":[-1.4556949E-2,1.8968262E-1,-1.288909E-1,1.0930693E0,1.5622324E-1,-9.045032E-2,-5.092325E-1,4.1461757E-1,5.895803E-2,2.880222E-1,5.2786384E-2,2.1514874E-2,-2.3086473E-1,-6.65054E-1,-2.998414E-1,3.0595882E-2,4.461616E-3,6.59615E-2,1.3178273E-2,1.519793E-3,2.3007885E-2,1.519793E-3,-1.499207E-2,-1.4734076E-2,1.519793E-3,-2.7380744E-2,-3.9836574E-2,-2.4122385E-2,-1.499207E-2],"categories":[],"categories_nodes":[],"categories_segments":[],"categories_sizes":[],"default_left":[0,0,0,0,0,0,0,0,0,0,0,0,0,0,0,0,0,0,0,0,0,0,0,0,0,0,0,0,0],"id":39,"left_children":[1,3,5,7,9,11,13,15,-1,17,19,21,23,25,27,-1,-1,-1,-1,-1,-1,-1,-1,-1,-1,-1,-1,-1,-1],"loss_changes":[1.2938632E2,6.002836E1,5.192561E1,2.8117065E0,2.6089287E1,5.0967056E1,1.9451904E1,5.7243633E-1,0E0,2.097847E1,1.8695642E1,5.4335857E1,2.9244614E1,3.038971E0,1.2974596E0,0E0,0E0,0E0,0E0,0E0,0E0,0E0,0E0,0E0,0E0,0E0,0E0,0E0,0E0],"parents":[2147483647,0,0,1,1,2,2,3,3,4,4,5,5,6,6,7,7,9,9,10,10,11,11,12,12,13,13,14,14],"right_children":[2,4,6,8,10,12,14,16,-1,18,20,22,24,26,28,-1,-1,-1,-1,-1,-1,-1,-1,-1,-1,-1,-1,-1,-1],"split_conditions":[1E0,9.958624E-1,2.65E1,1.104536E0,4.9E0,6.6E0,7.800641E0,4.4E0,5.895803E-2,2E0,6.2201285E0,1E0,4.304649E0,1E0,2.9E0,3.0595882E-2,4.461616E-3,6.59615E-2,1.3178273E-2,1.519793E-3,2.3007885E-2,1.519793E-3,-1.499207E-2,-1.4734076E-2,1.519793E-3,-2.7380744E-2,-3.9836574E-2,-2.4122385E-2,-1.499207E-2],"split_indices":[11,7,4,9,3,3,9,4,0,4,9,13,9,30,3,0,0,0,0,0,0,0,0,0,0,0,0,0,0],"split_type":[0,0,0,0,0,0,0,0,0,0,0,0,0,0,0,0,0,0,0,0,0,0,0,0,0,0,0,0,0],"sum_hessian":[5.5249995E3,1.9808436E3,3.5441558E3,6.794988E1,1.9128938E3,3.2222751E3,3.2188052E2,9.615295E0,5.8334587E1,8.3743427E2,1.0754595E3,1.7917125E3,1.4305627E3,2.5048372E2,7.1396805E1,3.9327881E0,5.682507E0,1.6474323E1,8.2095996E2,9.755062E2,9.9953285E1,1.41066E3,3.8105243E2,1.1994652E3,2.3109746E2,1.398608E2,1.1062294E2,1.46027565E1,5.679405E1],"tree_param":{"num_deleted":"0","num_feature":"34","num_nodes":"29","size_leaf_vector":"1"}},{"base_weights":[-1.904756E-2,2.600981E-1,-1.0804193E-1,1.065364E0,2.2316311E-1,-2.7852795E-1,1.19850606E-1,6.791773E-2,6.3538957E-1,-2.0506224E-1,2.8214407E-1,3.542976E-1,-3.2077307E-1,-1.5735726E-1,2.8846362E-1,3.8570937E-2,-7.727639E-3,3.879076E-2,-1.5341706E-2,5.496444E-3,1.9547503E-2,-1.1421836E-2,2.8547123E-2,-1.2893389E-2,-3.4075275E-2,-1.2751321E-3,-2.3451066E-2,2.5462603E-2,3.2776592E-3],"categories":[],"categories_nodes":[],"categories_segments":[],"categories_sizes":[],"default_left":[0,0,0,0,0,0,0,0,0,0,0,0,0,0,0,0,0,0,0,0,0,0,0,0,0,0,0,0,0],"id":40,"left_children":[1,3,5,7,9,11,13,-1,15,17,19,21,23,25,27,-1,-1,-1,-1,-1,-1,-1,-1,-1,-1,-1,-1,-1,-1],"loss_changes":[1.3736572E2,3.9547264E1,1.6305383E2,5.4268494E0,3.268183E1,6.466597E1,8.421064E1,0E0,3.8118668E0,1.6569584E1,2.0955696E1,1.9834297E1,5.0809433E1,2.7914303E1,5.6241066E1,0E0,0E0,0E0,0E0,0E0,0E0,0E0,0E0,0E0,0E0,0E0,0E0,0E0,0E0],"parents":[2147483647,0,0,1,1,2,2,3,3,4,4,5,5,6,6,8,8,9,9,10,10,11,11,12,12,13,13,14,14],"right_children":[2,4,6,8,10,12,14,-1,16,18,20,22,24,26,28,-1,-1,-1,-1,-1,-1,-1,-1,-1,-1,-1,-1,-1,-1],"split_conditions":[-3.6E0,9.717764E-1,1.106E2,-6.6E0,9.86E1,1E0,1.2806249E0,6.791773E-2,1.05E1,-1.03E1,1.8681542E0,9.11E1,1E0,5.6E0,4.9E0,3.8570937E-2,-7.727639E-3,3.879076E-2,-1.5341706E-2,5.496444E-3,1.9547503E-2,-1.1421836E-2,2.8547123E-2,-1.2893389E-2,-3.4075275E-2,-1.2751321E-3,-2.3451066E-2,2.5462603E-2,3.2776592E-3],"split_indices":[5,7,2,5,2,29,9,0,6,5,9,2,15,3,3,0,0,0,0,0,0,0,0,0,0,0,0,0,0],"split_type":[0,0,0,0,0,0,0,0,0,0,0,0,0,0,0,0,0,0,0,0,0,0,0,0,0,0,0,0,0],"sum_hessian":[5.5142344E3,1.3307262E3,4.1835083E3,5.5323494E1,1.2754027E3,2.3941775E3,1.7893306E3,2.9643106E1,2.568039E1,1.5277367E2,1.122629E3,1.4815962E2,2.246018E3,6.756681E2,1.1136624E3,2.2487814E1,3.1925757E0,1.265412E1,1.4011954E2,4.3799637E2,6.846327E2,3.9498695E1,1.0866093E2,1.9166111E3,3.2940683E2,4.7744507E2,1.9822304E2,5.6419006E2,5.4947235E2],"tree_param":{"num_deleted":"0","num_feature":"34","num_nodes":"29","size_leaf_vector":"1"}},{"base_weights":[-1.760925E-2,-7.112777E-1,8.585039E-2,-4.308897E-1,-8.963443E-1,1.6972458E-1,-1.0099906E0,9.756177E-2,-6.2657875E-1,-9.0373313E-1,-3.318085E-2,1.0028154E-1,4.9837768E-1,-2.8730765E-1,-5.1171668E-2,-2.2624297E-2,1.1403484E-2,-3.318085E-2,-8.745376E-3,-3.318085E-2,-4.5548584E-2,4.035161E-3,6.9733016E-2,3.4754094E-2,2.2536179E-3,-3.2490607E-2,7.1270964E-3],"categories":[],"categories_nodes":[],"categories_segments":[],"categories_sizes":[],"default_left":[0,0,0,0,0,0,0,0,0,0,0,0,0,0,0,0,0,0,0,0,0,0,0,0,0,0,0],"id":41,"left_children":[1,3,5,7,9,11,13,15,17,19,-1,21,23,25,-1,-1,-1,-1,-1,-1,-1,-1,-1,-1,-1,-1,-1],"loss_changes":[3.9661777E2,3.6329926E1,4.4179678E2,3.0626453E1,3.632202E-1,1.0174608E2,2.3683167E0,6.369487E0,3.7217178E0,2.4169922E-1,0E0,9.3749535E1,6.897395E1,2.4528708E0,0E0,0E0,0E0,0E0,0E0,0E0,0E0,0E0,0E0,0E0,0E0,0E0,0E0],"parents":[2147483647,0,0,1,1,2,2,3,3,4,4,5,5,6,6,7,7,8,8,9,9,11,11,12,12,13,13],"right_children":[2,4,6,8,10,12,14,16,18,20,-1,22,24,26,-1,-1,-1,-1,-1,-1,-1,-1,-1,-1,-1,-1,-1],"split_conditions":[1E-1,1E0,2.6E0,-4E0,7.5E0,1.8E0,2.7E0,1E0,4.2E0,3.6E0,-3.318085E-2,1E0,1E0,1E0,-5.1171668E-2,-2.2624297E-2,1.1403484E-2,-3.318085E-2,-8.745376E-3,-3.318085E-2,-4.5548584E-2,4.035161E-3,6.9733016E-2,3.4754094E-2,2.2536179E-3,-3.2490607E-2,7.1270964E-3],"split_indices":[12,8,12,5,6,12,12,23,6,4,0,22,15,18,0,0,0,0,0,0,0,0,0,0,0,0,0],"split_type":[0,0,0,0,0,0,0,0,0,0,0,0,0,0,0,0,0,0,0,0,0,0,0,0,0,0,0],"sum_hessian":[5.5075674E3,7.13932E2,4.7936353E3,2.8758307E2,4.2634894E2,4.4548164E3,3.3881915E2,7.729593E1,2.1028714E2,4.2184128E2,4.507683E0,3.6811384E3,7.736778E2,7.683704E0,3.3113547E2,1.31418705E1,6.415406E1,1.8990614E2,2.0381E1,6.216306E0,4.1562497E2,3.6287622E3,5.2376404E1,5.380363E2,2.3564148E2,4.2442036E0,3.4395006E0],"tree_param":{"num_deleted":"0","num_feature":"34","num_nodes":"27","size_leaf_vector":"1"}},{"base_weights":[-1.7682383E-2,1.05459906E-1,-2.2876029E-1,3.099728E-1,-5.1506467E-2,-6.165019E-2,-2.9629856E-1,1.0206339E0,2.7445626E-1,5.1135373E-1,-6.165019E-2,-6.165019E-2,-3.7950003E-1,-3.5473007E-1,-6.165019E-2,5.3409856E-2,-0E0,1.5328323E-2,-3.0825096E-3,4.448187E-2,1.58613E-2,-3.0825096E-3,3.5839565E-3,-2.49776E-2,-3.0825096E-3,-2.7990947E-2,-3.0825096E-3,-1.4398362E-2,-3.240072E-2,-1.6285965E-2,-3.0825096E-3],"categories":[],"categories_nodes":[],"categories_segments":[],"categories_sizes":[],"default_left":[0,0,0,0,0,0,0,0,0,0,0,0,0,0,0,0,0,0,0,0,0,0,0,0,0,0,0,0,0,0,0],"id":42,"left_children":[1,3,5,7,9,11,13,15,17,19,21,23,25,27,29,-1,-1,-1,-1,-1,-1,-1,-1,-1,-1,-1,-1,-1,-1,-1,-1],"loss_changes":[1.4325145E2,1.1181476E2,4.1703278E1,3.7852768E1,8.4393425E1,3.3159728E0,4.158696E1,3.440628E0,2.2366707E1,1.831961E1,9.917616E0,1.9591656E0,2.3004818E0,3.1602875E1,2.0183644E0,0E0,0E0,0E0,0E0,0E0,0E0,0E0,0E0,0E0,0E0,0E0,0E0,0E0,0E0,0E0,0E0],"parents":[2147483647,0,0,1,1,2,2,3,3,4,4,5,5,6,6,7,7,8,8,9,9,10,10,11,11,12,12,13,13,14,14],"right_children":[2,4,6,8,10,12,14,16,18,20,22,24,26,28,30,-1,-1,-1,-1,-1,-1,-1,-1,-1,-1,-1,-1,-1,-1,-1,-1],"split_conditions":[1.6683226E1,-2.1E0,-5.2E0,9.6219224E-1,5.8309517E0,1E0,1E0,1.23E1,1E0,4.1231055E0,1E0,7.78E1,1.033E2,2.8267649E1,8.85E1,5.3409856E-2,-0E0,1.5328323E-2,-3.0825096E-3,4.448187E-2,1.58613E-2,-3.0825096E-3,3.5839565E-3,-2.49776E-2,-3.0825096E-3,-2.7990947E-2,-3.0825096E-3,-1.4398362E-2,-3.240072E-2,-1.6285965E-2,-3.0825096E-3],"split_indices":[0,5,5,7,0,21,27,6,13,0,18,2,2,0,2,0,0,0,0,0,0,0,0,0,0,0,0,0,0,0,0],"split_type":[0,0,0,0,0,0,0,0,0,0,0,0,0,0,0,0,0,0,0,0,0,0,0,0,0,0,0,0,0,0,0],"sum_hessian":[5.49283E3,3.4681514E3,2.0246785E3,1.5065239E3,1.9616274E3,2.4243965E2,1.7822388E3,6.83969E1,1.4381271E3,2.5389812E2,1.7077294E3,2.146884E2,2.7751253E1,1.6252744E3,1.569644E2,6.5241035E1,3.1558619E0,1.3626929E3,7.54342E1,8.280347E1,1.7109464E2,1.1589026E3,5.488268E2,5.972882E0,2.0871552E2,1.8685202E1,9.0660515E0,1.3285204E3,2.9675403E2,2.326651E1,1.3369789E2],"tree_param":{"num_deleted":"0","num_feature":"34","num_nodes":"31","size_leaf_vector":"1"}},{"base_weights":[-7.000597E-3,-6.9624037E-1,9.1967285E-2,-1.5086937E-1,-8.2320076E-1,1.7138074E-1,-1.0101236E0,-4.8703507E-1,3.0002043E-2,-6.517452E-1,-8.847741E-1,1.0248718E-1,4.9563605E-1,-3.3618432E-1,-5.107109E-2,-2.4351753E-2,-0E0,-1.8711098E-2,1.0018074E-2,-2.4674203E-2,-3.8412984E-2,-4.104537E-2,-4.82862E-2,5.5539824E-2,3.821125E-3,7.876917E-3,3.0056352E-2,-2.6391393E-3,-2.0438751E-2],"categories":[],"categories_nodes":[],"categories_segments":[],"categories_sizes":[],"default_left":[0,0,0,0,0,0,0,0,0,0,0,0,0,0,0,0,0,0,0,0,0,0,0,0,0,0,0,0,0],"id":43,"left_children":[1,3,5,7,9,11,13,15,17,19,21,23,25,27,-1,-1,-1,-1,-1,-1,-1,-1,-1,-1,-1,-1,-1,-1,-1],"loss_changes":[3.739398E2,4.7107758E1,4.1930112E2,1.217782E1,4.661957E0,9.966203E1,1.4267883E0,6.277456E-1,7.5162706E0,3.727562E0,4.9813843E-1,9.709877E1,2.7506256E1,3.669882E-2,0E0,0E0,0E0,0E0,0E0,0E0,0E0,0E0,0E0,0E0,0E0,0E0,0E0,0E0,0E0],"parents":[2147483647,0,0,1,1,2,2,3,3,4,4,5,5,6,6,7,7,8,8,9,9,10,10,11,11,12,12,13,13],"right_children":[2,4,6,8,10,12,14,16,18,20,22,24,26,28,-1,-1,-1,-1,-1,-1,-1,-1,-1,-1,-1,-1,-1,-1,-1],"split_conditions":[1E-1,1E0,2.6E0,1E0,1E0,1.8E0,2.7E0,5.4E0,1.3892444E0,9.6E0,7.8E0,9.9747E-1,1.2727922E0,1.4E0,-5.107109E-2,-2.4351753E-2,-0E0,-1.8711098E-2,1.0018074E-2,-2.4674203E-2,-3.8412984E-2,-4.104537E-2,-4.82862E-2,5.5539824E-2,3.821125E-3,7.876917E-3,3.0056352E-2,-2.6391393E-3,-2.0438751E-2],"split_indices":[12,11,12,23,8,12,12,6,9,3,3,7,9,6,0,0,0,0,0,0,0,0,0,0,0,0,0,0,0],"split_type":[0,0,0,0,0,0,0,0,0,0,0,0,0,0,0,0,0,0,0,0,0,0,0,0,0,0,0,0,0],"sum_hessian":[5.4622163E3,6.849584E2,4.777258E3,1.3091495E2,5.540434E2,4.4581587E3,3.1909918E2,3.259079E1,9.832416E1,1.546629E2,3.993805E2,3.6803745E3,7.7778406E2,7.0051603E0,3.1209402E2,2.9076176E1,3.5146148E0,2.7572536E1,7.075162E1,9.327028E1,6.1392616E1,2.3915454E2,1.6022595E2,9.015918E1,3.5902153E3,1.8727994E2,5.9050415E2,3.537314E0,3.4678462E0],"tree_param":{"num_deleted":"0","num_feature":"34","num_nodes":"29","size_leaf_vector":"1"}},{"base_weights":[-1.1167712E-2,-2.4169491E-1,1.1060708E-1,-3.1590933E-1,-6.554392E-2,2.5355875E-1,-6.554392E-2,-4.8977837E-1,-2.002509E-1,-1.9072662E-1,-6.554392E-2,9.561331E-2,4.0502864E-1,-6.554392E-2,4.1398513E-1,-3.2358523E-2,-1.9507157E-2,-9.5363315E-3,-1.7250732E-2,-3.277196E-3,-9.5363315E-3,-3.277196E-3,-9.5363315E-3,-3.277196E-3,9.660016E-3,1.2516049E-2,2.8830359E-2,3.2761525E-2,-3.277196E-3,-2.3089806E-3,2.7627626E-2],"categories":[],"categories_nodes":[],"categories_segments":[],"categories_sizes":[],"default_left":[0,0,0,0,0,0,0,0,0,0,0,0,0,0,0,0,0,0,0,0,0,0,0,0,0,0,0,0,0,0,0],"id":44,"left_children":[1,3,5,7,9,11,13,15,17,19,21,23,25,27,29,-1,-1,-1,-1,-1,-1,-1,-1,-1,-1,-1,-1,-1,-1,-1,-1],"loss_changes":[1.5372327E2,3.468554E1,1.3968254E2,2.9745255E1,6.6397758E0,5.8749573E1,3.8590828E1,8.7933655E0,1.2171825E1,1.7502804E0,1.8537178E0,2.5576845E1,3.861798E1,9.309624E0,1.1059483E1,0E0,0E0,0E0,0E0,0E0,0E0,0E0,0E0,0E0,0E0,0E0,0E0,0E0,0E0,0E0,0E0],"parents":[2147483647,0,0,1,1,2,2,3,3,4,4,5,5,6,6,7,7,8,8,9,9,10,10,11,11,12,12,13,13,14,14],"right_children":[2,4,6,8,10,12,14,16,18,20,22,24,26,28,30,-1,-1,-1,-1,-1,-1,-1,-1,-1,-1,-1,-1,-1,-1,-1,-1],"split_conditions":[2.0263136E1,5.056679E0,1E0,1.5037275E1,9.13E1,2.96864E1,1.151E2,9.68E1,-2.3E0,-8.7E0,1E0,1E0,1E0,-6.3E0,4.25601E1,-3.2358523E-2,-1.9507157E-2,-9.5363315E-3,-1.7250732E-2,-3.277196E-3,-9.5363315E-3,-3.277196E-3,-9.5363315E-3,-3.277196E-3,9.660016E-3,1.2516049E-2,2.8830359E-2,3.2761525E-2,-3.277196E-3,-2.3089806E-3,2.7627626E-2],"split_indices":[1,9,15,1,2,1,2,2,5,5,21,23,23,5,1,0,0,0,0,0,0,0,0,0,0,0,0,0,0,0,0],"split_type":[0,0,0,0,0,0,0,0,0,0,0,0,0,0,0,0,0,0,0,0,0,0,0,0,0,0,0,0,0,0,0],"sum_hessian":[5.4575654E3,1.8871709E3,3.5703948E3,1.4854778E3,4.016931E2,2.4570513E3,1.1133435E3,5.8909705E2,8.963808E2,9.537865E1,3.0631445E2,1.2060276E3,1.2510236E3,9.495674E2,1.6377608E2,2.2215445E2,3.669426E2,4.581459E2,4.3823486E2,3.036918E0,9.234173E1,2.7306113E2,3.3253326E1,3.586844E2,8.4734326E2,6.0902185E2,6.420017E2,1.4548947E1,9.3501843E2,3.7376976E1,1.263991E2],"tree_param":{"num_deleted":"0","num_feature":"34","num_nodes":"31","size_leaf_vector":"1"}},{"base_weights":[-1.1737898E-2,1.2355723E-1,-1.7245634E-1,3.0704808E-1,-2.4449553E-2,-2.4449553E-2,-2.7613E-1,6.449619E-2,4.0808925E-1,6.1092824E-1,-2.4449553E-2,-2.9928946E-1,-2.4449553E-2,-2.4449553E-2,-3.3701226E-1,1.1814636E-2,-5.00258E-4,2.5988413E-2,1.2673432E-2,5.3091206E-2,1.7654119E-2,-1.2224776E-3,1.4661968E-2,-1.2224776E-3,-3.645178E-2,-1.2224776E-3,-1.037113E-2,-1.6012087E-2,-1.2224776E-3,-1.3991072E-2,-3.3212222E-2],"categories":[],"categories_nodes":[],"categories_segments":[],"categories_sizes":[],"default_left":[0,0,0,0,0,0,0,0,0,0,0,0,0,0,0,0,0,0,0,0,0,0,0,0,0,0,0,0,0,0,0],"id":45,"left_children":[1,3,5,7,9,11,13,15,17,19,21,23,25,27,29,-1,-1,-1,-1,-1,-1,-1,-1,-1,-1,-1,-1,-1,-1,-1,-1],"loss_changes":[1.1831937E2,1.4118521E2,5.932554E1,4.5710907E1,3.088772E1,7.562875E0,4.646483E1,1.4439369E1,2.2480865E1,8.05932E0,6.0593805E0,1.5199768E1,2.2645814E0,1.4173526E0,3.0413559E1,0E0,0E0,0E0,0E0,0E0,0E0,0E0,0E0,0E0,0E0,0E0,0E0,0E0,0E0,0E0,0E0],"parents":[2147483647,0,0,1,1,2,2,3,3,4,4,5,5,6,6,7,7,8,8,9,9,10,10,11,11,12,12,13,13,14,14],"right_children":[2,4,6,8,10,12,14,16,18,20,22,24,26,28,30,-1,-1,-1,-1,-1,-1,-1,-1,-1,-1,-1,-1,-1,-1,-1,-1],"split_conditions":[1.4758049E1,1E0,-3.6E0,1.4422206E0,5E0,9.59E1,1E0,5.315073E0,-2E0,3E0,1.162E2,1E0,1E0,-2E0,2.8267649E1,1.1814636E-2,-5.00258E-4,2.5988413E-2,1.2673432E-2,5.3091206E-2,1.7654119E-2,-1.2224776E-3,1.4661968E-2,-1.2224776E-3,-3.645178E-2,-1.2224776E-3,-1.037113E-2,-1.6012087E-2,-1.2224776E-3,-1.3991072E-2,-3.3212222E-2],"split_indices":[0,15,5,9,0,2,29,0,5,4,2,30,21,5,0,0,0,0,0,0,0,0,0,0,0,0,0,0,0,0,0],"split_type":[0,0,0,0,0,0,0,0,0,0,0,0,0,0,0,0,0,0,0,0,0,0,0,0,0,0,0,0,0,0,0],"sum_hessian":[5.423208E3,2.9430537E3,2.480154E3,1.8681978E3,1.074856E3,6.8878955E2,1.7913645E3,5.518038E2,1.3163939E3,7.2939735E1,1.0019162E3,9.449884E1,5.942907E2,1.555982E2,1.6357664E3,5.1386955E1,5.0041684E2,7.5971326E2,5.5668066E2,2.356183E1,4.9377907E1,9.548173E2,4.7098896E1,5.2061676E1,4.2437164E1,5.340787E2,6.0211998E1,1.083252E1,1.4476569E2,1.3968713E3,2.3889497E2],"tree_param":{"num_deleted":"0","num_feature":"34","num_nodes":"31","size_leaf_vector":"1"}},{"base_weights":[-2.014975E-2,-6.78035E-1,7.12231E-2,-1.2784737E-1,-8.1212753E-1,1.4398485E-1,-5.0990175E-2,4.0236756E-2,-2.3499373E-2,-4.6632092E-2,-7.2605133E-1,8.87159E-2,4.7793046E-1,-2.3499373E-2,1.16872145E-2,-3.2430224E-2,-4.1467328E-2,8.632474E-3,-1.4945474E-2,1.7819246E-2,4.8144795E-2],"categories":[],"categories_nodes":[],"categories_segments":[],"categories_sizes":[],"default_left":[0,0,0,0,0,0,0,0,0,0,0,0,0,0,0,0,0,0,0,0,0],"id":46,"left_children":[1,3,5,7,9,11,-1,13,-1,-1,15,17,19,-1,-1,-1,-1,-1,-1,-1,-1],"loss_changes":[3.2647403E2,4.8341736E1,3.78293E2,1.3678043E1,4.163666E0,8.2341415E1,0E0,1.2993732E1,0E0,0E0,3.0893555E0,1.2499843E2,3.6710587E1,0E0,0E0,0E0,0E0,0E0,0E0,0E0,0E0],"parents":[2147483647,0,0,1,1,2,2,3,3,4,4,5,5,7,7,10,10,11,11,12,12],"right_children":[2,4,6,8,10,12,-1,14,-1,-1,16,18,20,-1,-1,-1,-1,-1,-1,-1,-1],"split_conditions":[1E-1,1E0,2.7E0,1E0,1.8702368E1,5.1440777E1,-5.0990175E-2,1.7533548E1,-2.3499373E-2,-4.6632092E-2,1E0,1E0,1.164E2,-2.3499373E-2,1.16872145E-2,-3.2430224E-2,-4.1467328E-2,8.632474E-3,-1.4945474E-2,1.7819246E-2,4.8144795E-2],"split_indices":[12,11,12,15,1,1,0,1,0,0,15,15,2,0,0,0,0,0,0,0,0],"split_type":[0,0,0,0,0,0,0,0,0,0,0,0,0,0,0,0,0,0,0,0,0],"sum_hessian":[5.410235E3,6.5888544E2,4.751349E3,1.3061238E2,5.28273E2,4.456345E3,2.9500412E2,1.0859493E2,2.2017452E1,2.0948976E2,3.187833E2,3.826995E3,6.2935004E2,2.572056E1,8.287437E1,2.4182442E2,7.695886E1,3.147794E3,6.792012E2,5.0682626E2,1.2252373E2],"tree_param":{"num_deleted":"0","num_feature":"34","num_nodes":"21","size_leaf_vector":"1"}},{"base_weights":[-2.160309E-2,3.3299405E-2,-5.0895285E-2,-6.596931E-1,1.320564E-1,-1.02092475E-1,-7.988099E-1,7.787852E-2,4.777798E-1,3.408713E-3,-2.252256E-2,-2.9965786E-2,-4.3599993E-2,5.4675687E-2,2.885938E-3,3.6032554E-2,-3.4614333E-3],"categories":[],"categories_nodes":[],"categories_segments":[],"categories_sizes":[],"default_left":[0,0,0,0,0,0,0,0,0,0,0,0,0,0,0,0,0],"id":47,"left_children":[1,3,-1,5,7,9,11,13,15,-1,-1,-1,-1,-1,-1,-1,-1],"loss_changes":[2.9745523E2,3.5161053E2,0E0,4.922052E1,8.418225E1,1.4230028E1,6.347595E0,7.993386E1,8.134383E1,0E0,0E0,0E0,0E0,0E0,0E0,0E0,0E0],"parents":[2147483647,0,0,1,1,3,3,4,4,5,5,6,6,7,7,8,8],"right_children":[2,4,-1,6,8,10,12,14,16,-1,-1,-1,-1,-1,-1,-1,-1],"split_conditions":[2.7E0,1E-1,-5.0895285E-2,1E0,2E0,1E0,1E0,8.979227E-1,1E0,3.408713E-3,-2.252256E-2,-2.9965786E-2,-4.3599993E-2,5.4675687E-2,2.885938E-3,3.6032554E-2,-3.4614333E-3],"split_indices":[12,12,0,11,12,15,8,7,15,0,0,0,0,0,0,0,0],"split_type":[0,0,0,0,0,0,0,0,0,0,0,0,0,0,0,0,0],"sum_hessian":[5.406925E3,5.1258877E3,2.810371E2,6.3731696E2,4.488571E3,1.2866608E2,5.0865088E2,3.8838364E3,6.047343E2,1.0814397E2,2.052211E1,1.4329086E2,3.6536002E2,7.303616E1,3.8108003E3,4.189847E2,1.8574962E2],"tree_param":{"num_deleted":"0","num_feature":"34","num_nodes":"17","size_leaf_vector":"1"}},{"base_weights":[-1.2525534E-2,3.9965503E-2,-5.0804853E-2,-6.4494014E-1,1.3536361E-1,-1.21285066E-1,-7.845275E-1,1.17432535E-1,1.1879038E0,-2.2645315E-2,3.958909E-3,-4.479074E-2,-3.3629324E-2,3.0416888E-3,2.2728726E-2,6.8299495E-2,2.0579582E-2],"categories":[],"categories_nodes":[],"categories_segments":[],"categories_sizes":[],"default_left":[0,0,0,0,0,0,0,0,0,0,0,0,0,0,0,0,0],"id":48,"left_children":[1,3,-1,5,7,9,11,13,15,-1,-1,-1,-1,-1,-1,-1,-1],"loss_changes":[2.846728E2,3.343919E2,0E0,4.5241394E1,8.489502E1,1.4900362E1,4.9198E0,8.4295044E1,8.869072E0,0E0,0E0,0E0,0E0,0E0,0E0,0E0,0E0],"parents":[2147483647,0,0,1,1,3,3,4,4,5,5,6,6,7,7,8,8],"right_children":[2,4,-1,6,8,10,12,14,16,-1,-1,-1,-1,-1,-1,-1,-1],"split_conditions":[2.7E0,1E-1,-5.0804853E-2,1E0,1E0,1E0,2.0893621E1,5.1440777E1,1.9E0,-2.2645315E-2,3.958909E-3,-4.479074E-2,-3.3629324E-2,3.0416888E-3,2.2728726E-2,6.8299495E-2,2.0579582E-2],"split_indices":[12,12,0,11,22,23,1,1,12,0,0,0,0,0,0,0,0],"split_type":[0,0,0,0,0,0,0,0,0,0,0,0,0,0,0,0,0],"sum_hessian":[5.3713486E3,5.10572E3,2.6562863E2,6.2216406E2,4.483556E3,1.3248245E2,4.896816E2,4.4111064E3,7.244942E1,3.1215548E1,1.012669E2,2.362949E2,2.5338669E2,3.7803179E3,6.307887E2,5.7171112E1,1.5278309E1],"tree_param":{"num_deleted":"0","num_feature":"34","num_nodes":"17","size_leaf_vector":"1"}},{"base_weights":[-1.1056899E-2,-9.741225E-2,2.3214813E-1,-3.742328E-2,-5.5127776E-1,5.492631E-1,9.830109E-2,-3.3924854E-1,6.0899444E-2,6.736794E-2,-6.277536E-1,1.0864565E0,4.9318704E-1,3.2378212E-1,6.736794E-2,-6.9587277E-3,-2.0790555E-2,-6.36212E-3,3.368397E-3,3.368397E-3,-3.1795576E-3,-2.6195226E-2,-4.507713E-2,1.6189106E-2,5.7576526E-2,2.8984142E-2,1.6189106E-2,9.778752E-3,1.6189106E-2,3.368397E-3,9.778752E-3],"categories":[],"categories_nodes":[],"categories_segments":[],"categories_sizes":[],"default_left":[0,0,0,0,0,0,0,0,0,0,0,0,0,0,0,0,0,0,0,0,0,0,0,0,0,0,0,0,0,0,0],"id":49,"left_children":[1,3,5,7,9,11,13,15,17,19,21,23,25,27,29,-1,-1,-1,-1,-1,-1,-1,-1,-1,-1,-1,-1,-1,-1,-1,-1],"loss_changes":[1.1236545E2,1.0745149E2,5.9292023E1,1.03931076E2,2.9138E1,1.16154175E1,2.5780014E1,2.3227203E1,2.9258186E1,4.0193033E-1,1.118663E1,1.3441734E0,6.859268E0,7.957878E-1,6.8678913E0,0E0,0E0,0E0,0E0,0E0,0E0,0E0,0E0,0E0,0E0,0E0,0E0,0E0,0E0,0E0,0E0],"parents":[2147483647,0,0,1,1,2,2,3,3,4,4,5,5,6,6,7,7,8,8,9,9,10,10,11,11,12,12,13,13,14,14],"right_children":[2,4,6,8,10,12,14,16,18,20,22,24,26,28,30,-1,-1,-1,-1,-1,-1,-1,-1,-1,-1,-1,-1,-1,-1,-1,-1],"split_conditions":[3.859944E1,1E0,2E0,1.5539219E1,9.013878E0,9.4690037E-1,5E0,1E0,1E0,2.6E0,1.36565E1,4.1454906E1,1E0,2E-1,1E0,-6.9587277E-3,-2.0790555E-2,-6.36212E-3,3.368397E-3,3.368397E-3,-3.1795576E-3,-2.6195226E-2,-4.507713E-2,1.6189106E-2,5.7576526E-2,2.8984142E-2,1.6189106E-2,9.778752E-3,1.6189106E-2,3.368397E-3,9.778752E-3],"split_indices":[1,15,10,1,0,7,0,29,23,6,0,1,31,6,18,0,0,0,0,0,0,0,0,0,0,0,0,0,0,0,0],"split_type":[0,0,0,0,0,0,0,0,0,0,0,0,0,0,0,0,0,0,0,0,0,0,0,0,0,0,0,0,0,0,0],"sum_hessian":[5.3341006E3,3.9387976E3,1.395303E3,3.4818552E3,4.569423E2,4.1117944E2,9.841235E2,8.555926E2,2.6262627E3,3.526529E1,4.21677E2,3.4548504E1,3.7663095E2,1.3960439E2,8.445191E2,1.0599012E2,7.496025E2,7.6836444E2,1.8578982E3,2.0936224E1,1.4329066E1,3.1126605E2,1.1041096E2,3.3478148E0,3.120069E1,2.705563E2,1.0607463E2,1.0629707E1,1.2897469E2,6.406847E2,2.0383441E2],"tree_param":{"num_deleted":"0","num_feature":"34","num_nodes":"31","size_leaf_vector":"1"}},{"base_weights":[-6.488312E-3,4.3371603E-2,-5.0708514E-2,-6.3332605E-1,1.3410656E-1,-3.5550183E-1,-8.4334815E-1,-1.16434574E-1,2.0763898E-1,-7.607298E-4,-2.8263265E-2,-4.7319934E-2,-3.6916867E-2,-1.5275492E-2,2.2801103E-3,3.4898357E-3,1.8387195E-2],"categories":[],"categories_nodes":[],"categories_segments":[],"categories_sizes":[],"default_left":[0,0,0,0,0,0,0,0,0,0,0,0,0,0,0,0,0],"id":50,"left_children":[1,3,-1,5,7,9,11,13,15,-1,-1,-1,-1,-1,-1,-1,-1],"loss_changes":[2.6953748E2,3.1270392E2,0E0,3.441095E1,8.288837E1,1.8693668E1,2.2759552E0,3.6921497E1,7.6510895E1,0E0,0E0,0E0,0E0,0E0,0E0,0E0,0E0],"parents":[2147483647,0,0,1,1,3,3,4,4,5,5,6,6,7,7,8,8],"right_children":[2,4,-1,6,8,10,12,14,16,-1,-1,-1,-1,-1,-1,-1,-1],"split_conditions":[2.7E0,1E-1,-5.0708514E-2,1E0,1.2529964E0,-3.2E0,2.0893621E1,3.72908E1,2.5165314E1,-7.607298E-4,-2.8263265E-2,-4.7319934E-2,-3.6916867E-2,-1.5275492E-2,2.2801103E-3,3.4898357E-3,1.8387195E-2],"split_indices":[12,12,0,8,9,5,1,1,1,0,0,0,0,0,0,0,0],"split_type":[0,0,0,0,0,0,0,0,0,0,0,0,0,0,0,0,0],"sum_hessian":[5.330352E3,5.080393E3,2.4995917E2,5.985986E2,4.4817944E3,2.6104526E2,3.375533E2,1.01511316E3,3.4666812E3,1.0127741E2,1.5976785E2,1.5987581E2,1.7767752E2,5.1261707E2,5.0249612E2,1.8660774E3,1.6006038E3],"tree_param":{"num_deleted":"0","num_feature":"34","num_nodes":"17",